1720 128
1562 -0.00041892752 0.000184712 0.003986992 0.0070384946 -0.0072679296 -0.005560007 0.005045994 0.007010147 -0.003918303 -0.0029401341 0.005766019 -0.0011980245 -0.003544229 0.005120353 -0.0037970003 -0.0014187638 0.002247328 0.00077490136 -0.006472824 -0.007381889 0.0057123173 0.003961142 0.005279448 0.0005959887 0.004961633 -0.0026604421 -0.00073937606 0.004506698 -0.0058762794 -0.003075081 -0.0058684237 -0.0007265955 0.0074516553 -0.005718099 -0.0018232567 -0.0015138602 0.0063104974 -0.0046335123 3.5283156e-05 -0.0037138546 -0.007502774 0.003911948 -0.0068434263 -0.0034311134 -2.7421862e-05 -0.00023139175 -0.005985344 0.007511518 0.0038922327 0.007213393 -0.006373373 0.0035123425 -0.0032320907 0.0006441688 0.0066395467 -0.0034860754 0.0035292972 -0.005302313 -0.0027722567 0.0073425844 -0.0012325412 0.00025107153 -0.003234867 -0.0060021 -0.0011781314 0.0019295271 -0.00069377106 0.0043231733 -0.002142951 0.0017656758 0.0042623393 0.006520276 -0.0011357348 -0.0071938615 0.003414494 0.000446707 0.0058139907 -0.00063537713 -0.0020612609 -0.006838288 -0.0006691851 0.0022082524 0.0042198664 0.005509888 -0.0044555636 0.0014522029 0.0047569247 -0.0037484774 -0.0024275472 0.005310648 0.0012745904 0.00014837272 0.002713779 0.00017013866 0.0075147077 0.0039535966 -0.006966711 -0.005501219 0.0007042624 0.004994167 -0.006734131 0.002863858 0.0040545966 0.0044858893 0.00583353 -0.0048184963 0.0008637607 0.0047244392 -0.0022187894 -0.0048230644 -0.00032048672 -0.006538241 -0.00437501 0.005550421 0.0026191715 0.0056450544 0.0053126933 0.005883392 -0.0029602768 -0.0004389109 0.0018346692 -0.003530494 0.0065536965 -0.0077016903 0.0052848756 0.0022768881 -0.0038537746 0.003436084
896 -0.0013590427 0.005243269 0.007785039 -0.0034081591 -0.00046823267 -0.004449717 0.003008455 0.0021770522 0.0053836536 0.004766481 0.0074519506 0.007244857 0.006170366 -0.00546055 -0.0071530193 -0.0002779318 -0.0024217507 0.006167435 0.004639511 -0.0012075491 0.0011804402 0.0013984693 0.0061074775 -0.0074298335 -0.00016057119 0.0027103098 -0.00073357206 0.0065482594 0.0070396746 0.0051066456 -0.00055595394 0.0060237534 -0.006667449 0.002505552 -0.0036234353 -0.003975746 0.0028043892 0.0041955775 0.006069933 -0.004505083 0.005807313 0.005176169 -0.0028982814 -0.0068325326 0.004248021 0.0050857468 -0.0006152736 -0.005242075 -0.005535879 -0.0019508284 0.004018167 -0.0028634667 -0.0073203593 0.0029896405 0.0038159993 -0.0050223153 0.000944186 -0.0016209977 1.9065104e-05 -0.007721491 0.0021031285 -0.0037110206 0.0008497238 -0.0012314254 0.0017161509 -0.006157481 -0.0021227999 0.002080624 0.0041770954 -0.0018683709 -0.007429761 0.0035202177 7.3878095e-05 0.0024041561 -0.005322379 -0.0010745823 0.005991079 0.0057393825 -0.0028697634 0.0020646108 -0.0064977575 0.004848036 -0.0036229081 -0.0024719583 0.0072744973 0.00068233255 0.0058521116 -0.0047453614 0.004031646 0.0077522052 -0.006607337 -0.0040122587 -0.005519404 -0.0037989467 -0.002952003 -0.0066689057 0.006215317 -0.0037843268 0.006580948 0.004111383 -0.0051172078 0.0030920869 0.0042735543 -0.0058019813 -0.0057857186 -0.001933774 -0.006738848 -0.0012356034 -0.0003151819 0.0025778785 0.0011264691 -0.0006886106 -0.004370358 0.0013518482 -0.0007010717 0.005307571 0.0031043673 0.0035386495 0.0011205515 -0.0021092622 -0.0034115724 -0.00080630835 0.0011226777 -0.0020671943 -0.0055263927 -0.006097896 -0.0071263956 -0.004636851
2158 -0.0014433004 -0.0033780243 -0.0050473986 -0.002904158 0.0033509051 -0.0029211277 0.0065454496 0.0011984324 -0.005658062 0.0073701553 0.0059618847 0.0042916266 -0.0053506605 0.004548968 0.003132104 0.0040510697 0.003324923 0.0015154332 -0.0024766894 0.0065264413 0.0075095156 0.002962971 -0.0022164024 5.5683777e-06 0.0009522019 -0.006608066 -0.006424957 -0.000180481 0.0009666309 -0.0044870162 -0.0036916202 -0.0057391208 0.006506731 9.4763935e-05 -0.003522968 0.004454457 0.007171887 -0.003203025 0.0062224073 0.004199558 0.004593065 0.00040046126 0.0064164717 -0.0054836255 -0.0064395918 0.0072651207 -0.0001544226 -0.0015369346 0.0035965862 -0.0031994656 0.002143058 0.005421849 0.004738614 -0.005867808 0.0073299613 0.0036498504 0.0030985316 -0.0048777387 0.006609359 -0.0016798163 0.006894678 -0.0041890647 -0.0063511087 0.0053316867 0.0013056193 -0.0017175851 0.007432501 0.0074170744 -0.0076359743 0.0019572098 0.004809916 0.0030253567 0.0015803026 0.00033632945 0.00052627455 -0.002984872 -0.0055783205 -0.0016319314 0.003065545 0.0068895966 0.007233711 -0.0046687005 -0.0073458366 0.0076284194 0.0026795194 0.004036029 0.004908082 -0.0021908302 0.005720862 0.0022111498 0.0022429721 -0.001859664 -0.002443945 -0.0018516732 0.003340966 5.9420243e-05 -0.007487718 -0.0075512063 -0.0048032766 -0.000100445 0.0015604813 0.007368725 0.004362774 -0.0033521065 0.00021743495 0.0038784053 0.0060143042 -0.0008939244 0.0033776723 -0.004542484 -0.00062827393 0.0063281646 -0.0018438008 -0.0075495746 0.004515047 -0.0030701738 -0.0009553693 0.0077972794 -0.0017627738 -0.0037164567 -0.0041635837 0.0054538203 -0.0044600563 0.0016512992 -0.0041059842 0.004781808 0.003404146 0.0020362148
1202 -0.0011649085 -0.002145362 0.0070257317 0.004074824 -0.0016894685 -0.00739868 -0.005801603 -0.000831048 -0.00062105246 -0.0020022728 0.0075646257 -0.00035821926 0.004588876 -0.0058184275 -0.00195787 -0.004335831 -0.0055773556 0.0009695552 -0.0056068096 -0.0017536078 0.002905706 0.004557128 0.0009360807 0.001642759 -0.003211243 0.0056447918 -0.0049273763 0.0036306372 -0.006421854 0.0015909905 -0.003888322 -0.0033185063 -0.002428894 0.004418132 0.0045300005 -0.0038864445 0.0006041648 -0.0066373264 0.006101411 0.007232259 -0.0021424433 0.0006251745 0.0005833218 0.0042795977 -0.006723499 0.00045660604 0.005366736 0.0017434331 0.0008786535 -0.007282934 0.006626849 -0.0048938496 -0.002337792 0.0027295211 -0.0006036153 0.0011025714 0.001392181 -0.0053350776 -0.007597509 0.0070629567 0.00484223 -0.0054007247 0.0026589707 0.00016098749 0.003713864 -0.0055624554 0.003146058 0.0033964328 0.007779195 -0.0034951093 -0.0010853624 -0.0057166573 -0.0075764293 -0.007093951 -0.0007990273 -0.0050806953 0.0037888503 -0.0048156455 0.0019681137 0.0005776882 -0.0026501203 -0.00076501817 0.0077961916 0.007145224 -0.0034858044 0.0070961146 -0.0044076275 0.004633533 -0.0024197018 0.002681056 0.0023572082 0.005390985 -0.0018545967 0.006855497 0.005929241 -0.0074590985 -0.0062564136 -0.0059671067 0.0022837948 -0.0021833768 -0.005413688 -0.006350206 0.0064915465 0.0015550693 -0.0072875135 -0.0037443098 0.002450577 -0.0036821924 0.0041256584 -0.003307376 0.002063903 -0.0062856935 0.0048514735 0.003764757 0.0006149942 0.0023542559 -0.0068183457 0.0016641887 -0.0006824564 -0.007280538 -0.007365736 -0.0011021234 0.0034628194 0.0028938055 -0.005077104 -0.005369584 -0.0039057909 -0.0017865971
1117 -0.005664287 -0.007502592 -0.0021434603 -0.006533469 -0.0047178715 -0.0044304132 -0.0018313574 -0.0013335915 -0.006997655 -0.0005743746 0.0063691456 0.006008148 -0.005629778 -0.002864712 0.0024363687 -0.007477127 0.0011534682 0.0050972393 0.00448939 -0.006846142 -0.0035290187 -0.006359501 3.5903417e-05 0.0072372137 0.004666645 0.0039588343 0.003953955 -0.002533529 0.007462643 -0.0057472065 -0.00567999 -0.0017698351 -0.0006082505 -0.0025125807 -0.00046295766 0.005850643 -0.0005449364 -0.0012694849 0.002144062 -0.0065305475 0.006137347 0.006668831 -0.007487568 0.0019111456 0.0077382587 -0.005988909 -0.0054429052 -0.006044154 0.006559315 -0.0005322937 0.0071440693 -0.0063736103 0.002924285 0.002058627 0.0005802447 0.0018184967 -0.0058352295 -0.0073112296 0.001839513 0.0048034806 0.006238819 0.0044811675 -0.00060729403 0.006489191 -0.0072939955 0.002661041 0.00020840112 0.003013472 0.005770143 -0.0052540367 0.0043628756 -0.007439238 -0.0006284835 -0.006788076 -0.0039833384 0.007257208 -0.001451767 0.0022768956 0.0070869373 0.006982916 -0.0064128395 -0.0023533702 0.0077239107 0.0039878367 -0.001240693 -0.0067906417 0.0023136847 -0.005215545 0.0063533373 -0.0034822924 -0.0008346541 0.0007862225 -0.00014930777 0.0008970136 0.0047764536 -1.583714e-05 -0.0025359103 -0.0011802567 0.004607265 0.0011828924 -0.0005658297 0.007291599 -0.003844753 -0.00065500755 0.00716829 0.00527299 0.0011741063 -0.0069395006 0.0008974578 -0.0017876998 0.0073189354 0.0009452561 0.0011641122 0.0018800078 -0.0014343802 -0.003905964 0.00018158555 -0.0015735785 0.005156979 0.0069844713 -0.00052715186 0.0023257928 -0.004771605 0.0013275975 -0.005411119 -0.006792208 -0.0046095336 -0.0069972463
1384 0.005685621 -0.0045093996 0.0064658998 -0.0056590196 0.0026731836 0.0075585926 -0.006082381 -0.0077695763 -0.0033821454 -0.0020961957 -0.0002119448 -0.0068996493 -0.0067324666 0.0021876646 -0.0064112553 -0.0070854193 -0.0018284889 -0.0067435997 -0.0055130078 -0.006563399 -0.0002354132 -0.0035658581 0.00517748 0.0011930941 -0.002610528 0.0047726342 -0.004697879 -0.0036376324 -0.0056308666 -0.0033879532 -0.001413539 0.0050700335 -0.0021643694 0.0038429433 0.0053940956 -0.00583102 0.0035662893 0.004786702 -0.0023081833 0.005175798 0.004785843 -0.0050339727 -0.005284806 0.0019835616 -0.0012686085 -0.004738381 0.007421257 -0.004007927 -0.005120388 -9.366032e-05 -0.0021104906 0.00034718774 -0.0027636392 -0.00032760203 -0.0005536061 0.00064282864 0.006402201 -0.0044818027 -0.0012965063 0.0043528182 0.006381344 -0.0034711193 0.00701987 0.0064481758 -0.0034650173 0.00023680087 0.0033394461 -0.0030674376 -0.004343723 -0.005087752 -0.00052401423 -0.00023118872 0.003486785 -0.0019328548 -0.00013485085 0.0019233404 0.0038028117 -2.40691e-05 -0.0049526636 -0.0072350055 2.0826235e-05 0.005204605 0.0011453303 -0.0070050955 -0.0062020347 0.0051186737 -0.002957563 0.004886713 -0.0052195564 0.006624736 -0.0050908783 0.0025687655 -0.0008257702 -0.005302756 -0.002568435 -0.0009073531 -0.004274172 -0.0009463653 -0.0059088385 0.0020677028 0.0070860535 -0.0018572267 -0.0007628985 0.00274497 0.0067695994 -0.0046264473 -0.00538092 -0.0022913944 0.007146638 0.0006767716 -0.0067800004 -0.0011304524 0.0074058324 -0.005898037 -0.0041860146 0.0072785644 -0.0070107235 0.0029889904 0.00051987544 0.0052036727 0.0064943386 -0.002227176 -0.0031189946 0.006951498 0.0016325358 0.0048819855 -0.007379465 0.0074922843
1409 -0.0010533659 -0.004728215 0.0023379177 -0.00035672728 0.0036769472 -0.0017836103 -0.0032326896 0.0017796084 0.0065268623 -0.0039028171 0.0020849053 -0.0062426208 -0.005291677 -0.00036536623 -0.006849787 0.0021792483 0.0012489026 -0.0018122597 0.0039092116 0.0076162396 0.006604897 -0.0014689257 0.0016079312 -0.0031278823 -0.006438598 0.004904653 -0.0015227981 -0.0005204724 -0.0013838531 -0.0035434887 0.0031732107 -0.0033360785 -0.0074832393 0.006986809 0.00325396 0.0072146365 0.0051902365 0.0022849506 0.0076593906 -0.003456751 -0.005315087 0.0033026412 0.0029132813 -0.0044254772 0.007581844 -0.002779927 0.007460474 0.00065212976 -0.0049519194 -0.0015446227 -0.005763324 -0.0023277523 0.000813826 0.00740835 0.007309256 -0.005153029 0.0027149618 0.0017777896 -0.0019448064 -0.007210291 0.00080244243 -0.006379458 0.004937648 -0.0045313127 0.004324562 0.0076825963 -0.00012500025 0.003537885 -0.001413594 0.0057505947 0.0030782009 -0.007039316 -0.0018738313 0.0028349757 -7.778779e-05 -0.0009384928 -0.00082456134 -0.0013059387 0.0004726192 0.0032539805 -0.0033224933 -0.002995017 -4.1263178e-05 0.0002104342 -0.00013187993 -0.0037386771 0.0033698454 -0.001696812 0.0016433904 0.0005207211 0.00466381 -0.00534561 -0.0053247735 -0.0034970762 0.0073717413 -0.0012436584 -0.007366596 -0.00042581372 -0.003475721 0.0046875617 -0.007487254 0.0022335947 -0.007228775 0.00097640697 0.0046868734 0.005779178 -0.0059542684 -0.0047289245 -0.005342532 -0.006186203 -0.0074211564 -0.0016605444 -0.00065307226 -0.0056689074 0.0053023724 0.0008747028 0.0045538023 0.001150677 0.000616692 -0.005756351 -0.001700514 0.0033758432 -0.003972902 0.0008834293 0.002252628 -0.001200282 0.0077596055 0.006523152
803 0.0018872395 0.005561129 0.0046026856 -0.004359857 -0.0040283147 -0.0052096387 -0.0060756523 0.0064927563 -0.0015487047 -0.00535544 -0.0032456163 0.0040188488 -0.0022415128 -0.002929422 0.0012667384 -0.0021689795 -0.0012377817 0.0008394467 -0.0023265192 0.0066556893 0.003055418 -0.007780362 0.0048903124 -0.005276761 0.00060111936 0.0034408085 -0.0039870115 -0.0016489606 0.006324593 -0.0033154627 -0.005965829 0.0072327442 -0.0016839821 -0.0036870567 0.0066959374 0.0033463584 0.0033787787 0.007253526 -0.0066039693 0.004105719 0.0015932433 0.0032720938 0.0013264846 0.0034876047 0.0035049142 0.0047691576 -0.0025016386 -0.0035747876 -0.00033321604 0.0019794796 -0.0025493493 0.004732592 0.0032454142 0.0060660876 0.0020072442 0.0063411584 -0.0010837577 0.006310881 0.0029039187 -0.006286972 -0.0030731363 -0.0019311551 0.0038226908 -0.0006813742 -0.002211647 0.006120084 0.007283516 -0.0012616627 -0.0040306635 -0.003673249 -0.0037859771 -0.0075022075 0.0010718908 -0.0033007152 0.0019739913 0.004386315 -0.003176489 -0.0074973293 0.0012083575 -0.0052344706 0.001949355 -0.0029536188 0.0055300165 0.0005001724 0.0027819835 -0.0021399483 -0.001336365 0.0059787445 0.0010997485 -0.004570663 -0.0061207004 0.0009630369 0.0050426805 0.0043408982 -0.00701332 0.0067126285 0.0031617014 0.005835629 0.007614324 -0.0056949845 -0.0070624705 0.0045593753 0.0073368847 0.0027397852 0.0055381227 -0.0012249453 0.0062089832 -0.007413015 -0.006273046 -0.00518779 -0.0031276988 0.0038978253 -0.0029793428 -0.0064999256 0.006571701 -0.0029273452 0.006725544 -0.0038248058 0.0030614017 0.0038453257 0.0018692259 -0.0022021905 0.0022258786 -0.0064501846 -0.002160578 -0.0020243423 0.005663286 -0.0027057836
1369 -0.005156018 0.0033909585 -0.00037069153 -0.002810591 0.0053769313 0.003025244 -0.0030470323 0.0006030379 0.0071433615 0.006058325 0.0049702125 0.00364633 0.0018628826 -0.0014387704 -0.0049775727 -0.00023578946 -0.0012229597 -0.00044709817 -0.004892868 0.0058078496 -0.005149604 -0.0056556854 -0.0021540206 -0.0011839066 -0.005965404 0.0005455008 -0.0041610245 -0.0009965189 -0.005753993 0.0015316941 0.0025571864 -1.8076971e-05 -0.0042565297 -0.0013485048 0.0055350913 0.0029189521 -0.0069383197 -0.0026668366 0.0018391423 0.001670328 -0.007393756 0.0035712235 -0.0067632794 -0.005771147 0.0027211811 -0.0027116863 0.002784743 0.0069485083 -0.0027924394 0.007281582 0.0013367487 0.007693574 0.004457065 -0.007148034 -0.0025997898 0.0051016994 0.0043771714 0.0068011843 0.0054110177 0.006280381 -0.0076742256 0.0033584572 -0.0039297473 0.0027440516 0.0047317874 0.0034313528 0.005869031 0.0011700904 -0.0009882357 0.004506563 -0.004405912 3.0149706e-05 0.0073879585 -0.004282227 0.0029799053 -0.0063382974 0.0076330416 0.0063789953 0.0010007592 0.0039824834 0.0011001006 -0.005043095 -0.0011156648 0.0050384104 -0.0036072703 -0.0031195823 0.003847191 0.0021196082 -0.0014437307 -0.002247612 0.004695884 -0.004466202 -0.002528674 -0.005068613 -0.0033083064 -0.006703902 -0.0034920229 -0.0066493982 0.0010967012 -0.006732966 -0.0077473875 -0.00640752 -0.0052911453 0.005219207 0.0029566847 0.00027825497 -0.0023109233 -0.0058033755 0.00041673332 0.0003905408 0.00015282724 0.0006660903 0.00061432086 -5.325023e-05 -0.006255511 -0.004586151 -0.0065491498 -0.0010250332 0.0014223726 0.0057946313 -0.0015339274 -0.0018166341 0.0074118394 6.226916e-05 -0.0018785326 0.006722537 0.0020992216 -0.0041749785
330 0.005146958 0.0035235574 -0.0055113025 -0.0002524797 0.00065194257 0.004490123 -0.0013419176 -0.0021926016 0.0013659615 0.00066185277 0.00093189627 -0.002058033 -0.004676394 0.005721081 0.005927637 0.006481529 -0.0067178495 0.0020597074 -0.0027812207 0.007515941 0.0022685686 0.0036258698 0.0018637618 0.0051628733 -0.0044869455 0.0061675096 -0.0018835329 -0.0035639731 -0.0016101487 0.007604342 -0.0053567113 -0.0017122813 0.005469531 -4.355423e-05 -0.004917943 -0.004994942 0.0069846837 0.005023106 0.0037293695 -0.0025484748 -0.007240328 0.0029585063 0.00559418 -0.0044006947 -0.0061445413 -0.002322453 -0.0038530454 -0.0018086806 -0.0015189191 -0.004115251 0.0073805572 -0.0072646346 0.003518709 0.004222014 -0.0011009863 0.007036791 0.0077229375 -0.0042773774 -0.0047039064 -0.0052710725 -0.0061678765 -0.002381185 -0.0043703336 -0.0065192813 0.0006116424 0.0023395754 0.0050115185 -0.002053867 -0.0034792786 0.0009762272 0.00030582957 0.006341405 0.00014281273 0.0056496765 -0.0064566527 0.0065887 -0.0014757104 0.0067977766 -0.005950654 0.0014034268 0.00082538 3.59416e-05 -0.0039869165 -0.0072247637 -0.0056751696 -0.0062118545 0.0014950996 0.00037380215 -0.0014165137 0.0055626296 -0.0019341344 -0.0010525854 -0.0069535654 -0.007754229 0.006991717 -0.004495264 -0.0049789045 0.004062037 0.0052109323 -0.0053372197 0.00074981246 -0.00469412 0.0012869872 -0.0033509992 -0.002688123 0.001707552 0.0067668576 0.005256336 -0.007560201 -0.004392269 0.0061565097 0.0015541855 -0.0033250405 0.00046782196 0.007438251 -0.0008614976 -0.007362998 0.0012565702 0.004869027 0.0049081016 0.0031966018 -0.004414249 -0.00028960407 -4.3217093e-05 0.0035717152 -0.0062824916 -0.006264304 0.0002068365
200 -0.006725234 0.004546997 -0.00032641552 0.0077899825 -0.004174982 -0.00037979614 0.006059979 -0.0031780722 -0.003918672 0.0012422428 0.0020708544 -0.0020038746 0.0050371317 -0.005984338 0.0026512193 0.0003827894 0.006822018 0.004673995 0.0053245015 0.006111363 -0.0074219685 0.0074704867 -0.0060709026 -0.0020668032 -0.0038331319 -0.0038802316 -0.0062684305 -0.0060809255 -0.0035571968 -0.0009963764 -0.0039867098 0.0047972985 -0.007434859 -0.0041461755 0.007372775 0.005461976 0.005996731 0.0033083903 0.000396166 -0.0046727685 0.0047021694 0.0020586178 0.0060151825 0.0049951896 0.006205133 0.006763599 -0.0077310586 -0.0052778944 0.0010449803 0.005031487 0.0057607936 0.0043101413 0.0059856446 -0.00400435 0.00514407 -0.0032096663 -0.0070744865 0.0071419375 0.0010401597 -0.0021559997 -0.0019358145 -0.0032972489 0.0037596384 0.0034376737 -0.0020729396 -0.0057358444 -0.0027858214 -0.00026298035 0.004762416 -0.0022166707 -9.444915e-05 0.00068728626 -0.005543476 0.0016132826 -0.0011190809 0.002189179 0.0037829857 -0.0010562651 -0.0021719867 0.0060458183 0.003941874 0.0052449387 0.0035278462 0.0067712152 0.00583982 -0.0008452246 0.0068340925 0.0035950923 0.0042504948 -0.0010828786 -0.00159478 -0.00345652 -0.0066524977 0.002373225 0.006939994 0.0069685485 -0.0015174644 0.0047548106 0.002952909 -0.003356223 0.0015960345 -0.004248348 0.006413197 0.00424446 0.0024878392 0.0032051317 0.0067633986 0.0056812773 -0.00065115094 -0.0055256 0.0065472443 0.0056512374 0.0013519311 -0.0010527279 -0.004601634 -0.003541477 0.0067562237 -0.002449303 -0.0049522026 0.007710998 0.006013005 0.0071255015 0.00088711083 -0.0065039685 0.006582044 -0.0028876802 0.004486073 0.0034309216
1824 0.0075702695 -0.007260545 0.0071940664 -0.0072511937 -0.00539665 -0.0071110893 -0.0043336796 0.00575695 0.007159748 -0.0025979308 0.002908633 -0.0028321901 0.006157399 0.0045834966 1.6298145e-07 -0.0028349021 -0.005643989 0.0037254812 0.0011351397 -0.0020415513 0.0061232867 -0.0031637615 -0.0071476456 -0.0017620865 9.7771175e-05 -0.005186918 -0.0042864187 -0.006640451 0.0072108386 0.005800022 -0.0002306588 0.005755987 0.0062115537 -0.0006121667 0.005165696 0.002943378 0.003966283 0.0056663994 -0.003702648 -0.0017074477 0.00068212766 0.0033095358 0.0025815088 0.0039811153 0.003583192 -0.006592585 -0.0024873745 -0.0056537185 0.0075636115 0.003911406 0.0001334697 0.003213264 -0.005981352 -0.004917696 0.0024034325 0.0051051863 0.0030858396 0.00470158 -0.0015516654 -0.0026133824 0.00016185176 -0.0024955943 -0.0043100817 -0.006084813 0.005105893 -0.0008518258 -0.0014772499 -0.0060974807 0.007294979 0.00067823566 0.0013825288 0.0019466141 -0.005770307 0.0012803301 0.0023254398 -0.0066929916 0.0038717203 0.0019011004 0.0058577443 0.003940858 -0.0023685284 -0.0055960445 0.0055439165 0.0014855741 0.004061903 0.004985241 0.0014939681 -0.0047871964 -4.919246e-06 0.0064596077 -0.0047644908 0.007373657 -0.005617924 0.0033069458 0.0016901521 0.0058130585 -0.0038197385 -0.0035658954 -0.0047641983 0.0025776308 -0.0035152053 0.006658504 -0.0033506462 -0.0071136095 -0.003762778 0.005012883 -0.004977597 -0.0041105757 -0.005706571 0.0047048917 0.0026231203 0.002225305 -0.0024519926 0.0047116335 -0.0048068324 -0.0015469538 -0.004674283 -0.0007778751 -0.0015788954 0.006629645 6.09383e-05 -0.0066994736 -0.0042414833 -0.005371864 0.0021034228 0.007388006 -0.004543747 0.0064570513
1 0.0066656657 -0.0055176867 -0.00694001 0.0073977998 0.006542472 -0.003664759 -0.0052547194 0.0061266692 0.0029401137 0.0063246125 -0.00591527 -0.0074414723 0.0012323484 -0.007660756 -0.0038170973 -0.0027032057 0.007516346 0.0067371633 -0.0022153184 0.004552244 0.0064352304 -0.0017679539 0.007444173 0.0055939183 0.0015949225 -0.0030068466 -0.0039701173 -0.0023841038 0.006162394 -0.004836277 -0.0022773612 0.007180486 0.0027005123 0.004744228 -0.006275638 -0.0005871132 0.0043144124 -0.0036831787 0.005842573 0.007280931 -0.00031981897 -0.0016121883 -0.00046356115 -0.0045202263 -0.0065517826 -0.0011772448 -0.0019977996 0.0034237765 -0.005365248 0.0042294497 -0.005269598 -0.006109601 0.006618525 0.0069676675 -0.002719719 0.0027276678 -0.004527918 -0.0068360046 -0.0043090405 0.0052724443 0.0050138747 0.007373495 0.0055119414 0.005277307 0.0010157553 -0.0076596113 0.0035841893 -0.00042048655 0.00494695 0.0013933396 -0.0024451548 0.0060624788 0.0012145825 4.3132342e-05 -0.00360387 -0.0066043157 -0.0060678376 0.006773836 -0.006972625 0.007058372 -0.007250795 -0.00021621585 -0.0014898805 -0.0069774576 0.0067422343 0.0052951667 0.0023589367 0.003776135 8.764863e-05 0.0073630316 0.005485381 -0.007698224 -0.0034634536 -0.0010078996 0.0023810333 -0.0033780877 0.0011321614 -0.0061296085 0.00217037 0.0036739781 0.0038572755 -0.0024810173 -0.0065836255 -0.007203608 -0.0005647652 -0.005724582 -0.0053241896 0.0047812546 0.005603362 0.0016542338 -0.006171407 -0.0044523347 0.006290504 0.003063159 -0.0040941173 -0.0057749255 0.0006027771 0.0027060583 0.00162437 0.0024225032 -0.0043910155 -0.007726161 -0.005485029 0.00017992873 0.0036083432 0.0035361778 0.0014686035 0.0040395893
20 -8.231308e-05 0.0032141926 -0.007127532 0.0060163373 0.004802714 0.0040032472 0.00563021 0.0065935915 0.00057710614 -0.0013311412 0.0004051784 -0.007278735 0.0065673552 -0.004984322 0.006584252 -0.0033159023 0.0005053459 -0.007159507 -0.0074676313 -0.006122508 -0.0060398877 0.00029342342 -0.0056456737 -0.0038673542 -0.0041185208 -0.003351014 0.005478368 0.003772961 0.0067834146 0.0055418685 -0.0044487547 0.005656872 -0.007261643 -0.002021538 -0.0060602864 0.0032754699 0.0014064303 0.005504759 0.0023005456 -0.0054537887 0.0060255295 -0.004678849 0.00702946 0.0023118788 -0.0031369478 -0.0036632763 -0.003450564 -0.0048019197 0.0073271412 -0.0020699967 0.0060722185 -0.007562762 0.0016474929 -0.0009637615 0.005893929 -0.007073907 0.005810596 -0.003988903 -0.0046982616 -0.0044134036 -0.0026399763 -0.002664919 -0.0024966132 -0.0058532823 0.0005537318 -0.00045005605 -0.0013156245 0.0029352596 -0.005953273 -0.0025167363 0.0040276106 0.006674893 -0.0076640155 0.005621357 0.004148037 -0.0030310135 0.0067001227 -0.0072046816 0.0056630317 0.0041904952 0.001010621 -0.004062308 -0.0032645725 -0.0026224842 0.0012564743 0.0012396127 0.0057720654 0.007794995 0.0069276076 -0.0031300383 0.0075354613 -0.00049182866 0.0038011195 0.0019914191 -0.00049203914 0.0028651934 -0.0041557923 -0.004497404 -0.0059411284 0.0014894018 0.0050983354 0.0006891629 0.0009819912 0.0024778098 0.0063552074 -0.0060156723 0.0017662123 -0.0058391485 0.0028982908 0.0074301166 0.005875202 0.0050203362 0.0062615434 0.0051180823 0.0053567784 0.006782881 -0.0038656564 0.0071976203 0.0039525013 -0.0016642576 0.0066308193 0.003969799 0.007538246 0.0022128131 0.007709014 0.0009351596 0.0071321744 0.002802318
1738 0.0051287543 -0.0028213523 0.00530696 0.005659042 -0.0016667666 -0.0014527766 0.0028216764 -0.005497209 0.007605898 -0.0076409243 -0.005077726 0.0021748329 0.00502499 -0.0041932557 0.0021503847 0.007126024 -0.005324548 -0.004765556 -0.0038981577 -0.002872197 0.0014450904 0.007564557 0.0050295126 0.0003102282 0.001930288 0.0065941336 0.007132015 0.004397463 0.004645518 -0.005953661 -0.0029903688 -0.0044377595 0.004829511 -0.0017628511 -0.0068589337 0.005952441 0.0065622525 -0.0025939336 0.00712239 -0.0005768435 -0.0028332183 -0.00030053966 0.00015189592 -0.0027382001 0.002197845 0.004476332 0.005366414 -0.006955833 -0.0017130692 -0.0042826543 0.0058758594 0.0050794557 -0.0034068143 0.0018178383 -0.004651298 0.00018476229 0.0073919995 -0.002038939 -0.0040529044 -0.00577907 -0.0022749547 -0.0006752452 0.002756142 0.007610851 -0.0026478712 0.0014857566 0.0075632883 0.0011965521 0.00077070016 0.0076581025 0.007262078 0.006021927 -0.004820724 0.0077999886 0.004569521 0.0070880204 -0.001558749 0.0026171375 0.0053387163 -0.0030419976 0.005189727 0.0020022364 0.0072763516 -0.002371722 -0.0024291947 0.0048557734 -0.007092379 -0.0056671808 -0.0050781453 -0.00058521423 -0.0018461104 0.0053246245 0.0072160875 -0.00071074907 0.001103769 0.0015784036 -0.0015779678 -0.006276829 0.00581332 -0.0033577355 0.003575405 0.007101331 0.0023775175 0.0024521798 0.0031733038 -0.0021103257 0.002988101 0.00026376825 0.0043958686 0.004294821 0.0014289999 0.004491724 -0.007006311 0.005124498 0.007207806 -0.0032868339 0.0012558987 -0.00408897 0.0008267332 0.0021641944 0.0063755754 0.00042501 0.0019977018 0.0010138554 0.006564471 -0.0044591427 -0.004892055 -0.0028339988
1747 -0.0017973045 0.0039383303 -0.0063440287 -0.0022136997 -0.0064042397 0.004023211 -0.0020062998 -0.0070836777 0.0031810384 0.007044784 -0.002373172 -0.004561359 0.0023592878 -0.00034050643 -0.0077964347 0.0065763313 -0.005733506 -0.0038518803 -0.0020758444 -0.004259621 0.0013410235 0.007588136 0.0035720877 0.006319221 -0.00036754552 0.00050384644 -0.00208465 -0.0068590324 0.0026807059 0.0016354481 -0.0073608235 -0.0038815914 -0.007604765 -0.004468587 0.0031754235 0.006752235 0.0032122266 0.0018659877 0.006363108 -0.00087438244 -0.0010919636 -0.0068334555 -9.827502e-05 -0.002005916 0.0003016228 0.005687236 -0.005501141 -0.0030831834 -0.0052067228 -0.0027688397 -0.0025904933 0.0016696258 0.0026001316 -0.0038728025 -0.0035517896 0.0008896049 0.0042605335 0.0041981637 -0.0023191692 -0.003333223 -0.0043880055 -0.00042576808 0.0015206039 0.0011916766 0.005744164 -0.0021354472 -5.150307e-05 -0.0043184636 -0.0009141136 -0.0060249716 -0.00074947625 0.0010231836 -0.006714644 0.006834831 -0.0071936455 -0.0075192787 -0.0066497065 0.005713491 0.0042699752 0.007226142 0.002007951 0.0006613508 -0.0019839378 0.0073106783 0.0021543037 0.0031997254 -0.00092416815 0.0007066438 0.0051752403 -0.0005675787 0.002610553 -0.00052501634 0.0041003106 0.0028436985 0.0020176014 -0.004148354 -0.0036782036 0.0033656424 -0.004614977 -0.00014078617 -0.0004949346 0.0027290964 -0.0065955203 0.006888464 -0.0011318317 -0.004164787 0.0031675538 -0.0015121019 -0.0060667833 -0.0035131238 -0.00030291174 -0.0069894316 0.0004457524 0.0019076513 -0.0025197444 0.0020081252 0.0019381233 0.007803294 0.0011175824 0.0015785452 0.0021715323 -0.0016233372 -0.006795794 0.0062681045 -0.0015427321 -0.00757212 -0.0051187538 -0.0030827038
753 0.003089334 0.0039363913 0.004754696 -0.005289266 0.0005381545 -0.0021681888 -0.004069685 0.0054541193 0.003087474 -0.0024269586 -0.0064663338 -0.004016239 -0.0005074488 0.006102941 0.0047220197 -0.0066028563 -0.007471512 0.005573309 -0.001818411 -0.0028846161 0.0044920566 -0.004565864 0.003979652 -0.00018939469 -0.0053712213 -0.00025909208 0.0049679624 0.0072608897 0.0017350884 0.003945385 -0.0038863467 -0.0006230874 -0.0041544028 0.0009288769 -0.0014009485 -0.002837996 -0.005479984 0.0075425245 0.0023248652 -0.0017822068 -0.0032688202 0.0060263965 -0.005063949 0.0024387054 0.0006151227 0.00650225 0.0053407634 -0.0022723805 0.0019805469 -0.0013016192 -0.0073864544 -0.0020417664 0.0010410342 0.005110044 0.007800471 0.0070800427 -0.0062620007 0.005071395 -0.0044646384 -0.0007590428 0.0003772052 0.0051421355 0.0034922995 0.0035966616 0.0074086906 0.0002989564 -0.004717745 -0.004945391 0.0050248355 -0.0040957667 -0.002226416 0.0031838156 -0.0017892467 -0.0047071977 -0.0018153554 0.00094290543 0.0017057499 0.004752948 -0.0040734382 0.0024046572 0.005656778 0.0017149327 0.0042167893 -0.0037854165 0.004806728 -0.005938501 0.0027288012 -0.0072826594 -0.0020346176 -0.0070884367 -0.0012408346 -0.0041912124 -0.0030811867 0.00090129115 0.0021877717 -0.0011924962 -0.006383215 -0.004623455 0.0006400747 -0.003083014 -0.0073675374 -0.0006054491 0.005182241 0.004670972 -0.0077478588 0.002436393 -0.004677579 -0.007173352 0.0001329789 -0.00028876588 -0.0054468745 -0.004906295 -0.0018953793 0.005544263 -0.005895218 0.006014128 -0.00037144125 0.0008541355 0.0074083293 0.003693875 -0.002791224 0.002918453 0.0027494421 0.004950545 5.417131e-05 -0.003456005 0.0010298993 -0.0042298706
655 0.0011029355 0.0038485788 0.004027225 0.0071731545 -0.0058692694 -0.0042215968 0.0050541973 0.0010589678 -0.00516547 0.0006909296 0.0020914376 -0.0019756528 -0.0038751252 0.003909965 0.007517048 -0.0057536513 -9.0095215e-05 -0.0020034835 -0.004972767 -0.0010770746 -0.004102176 0.0070781214 -0.004524038 0.0028797463 -0.00018553529 0.0032962319 0.0016516764 0.0078092357 0.0004917821 -0.004269083 -0.00092163496 0.001617603 -0.0026352098 -0.0061302865 -0.004374423 -0.00527349 0.0049635367 0.0030644974 0.0064183874 0.0050934907 -0.004787375 0.0021218369 0.006618848 0.0012466069 0.0023970539 0.0045411047 -0.0069057588 0.007128709 0.005327721 0.0066487836 -0.0064267674 0.00482464 0.005178962 -0.0010606581 -0.0049170824 0.0041614687 -0.005359045 -0.0041588703 0.0027435077 0.0063132597 0.006791167 -0.0034416523 -0.0071787266 0.007506011 0.0049143033 -0.0030986993 -0.0066091632 -0.003686199 -0.003091584 -0.0025573839 0.00063991547 -0.00023215823 -0.0024315445 -0.0046843654 0.0073597813 -0.003691826 -0.0056735147 0.0060036955 0.0019669496 0.0067393715 -0.003488372 -0.00538469 0.000769455 -0.0009163879 -0.0073414566 -0.0012524007 0.0023832805 0.005129517 0.005347845 0.0025064675 -0.0034713065 -0.0014368491 -0.0030783266 0.004510871 -0.0049677417 0.0016429834 -0.001050964 -0.004541233 -0.005661103 0.004572314 -0.006529847 -0.000536914 0.0022089267 0.0060461015 -0.0057014907 0.002581698 0.0076628886 -0.005450843 -0.002761608 0.004010557 0.0040924884 0.0012688395 0.0062274495 0.0006496785 0.001461966 -0.0012541013 -0.006379904 0.0025451593 0.0015362222 -0.0068235975 -0.0005273493 5.9898943e-05 -4.6556816e-06 0.006804792 -0.001959974 -0.004611451 0.005846357 -0.005671666
2605 -0.0070047807 -0.0013981201 -0.0065370603 0.00030484982 0.0015201047 -0.0019292841 -0.005037508 -0.00025092158 -0.0008582063 0.0027291887 0.0063492293 0.004574665 0.006594522 -0.0070063835 0.007376943 -0.0018482469 0.006794572 0.0018629823 0.0028009694 -0.0074856933 -0.007411292 0.007018688 -0.0022631 0.0022003269 0.0050151898 -0.00023431797 0.0075952318 -0.00080758985 -0.007556933 -0.0055115996 -0.0008149659 -0.006777266 0.0057980064 0.0028276043 -0.0068335515 0.0066247834 0.0069762804 0.0045682574 0.005398323 -0.007477276 0.00038474053 -0.007203618 -0.0028640758 0.0001977887 -0.00021906756 0.0011447519 0.002560581 0.001661662 0.0041561304 0.005875387 -0.0045981947 0.0062166527 0.0046808654 0.007645225 0.0036123889 -0.002599434 -0.0029268805 -0.0004915027 -0.0012931237 0.0077129574 0.0008775033 0.0031306678 0.0026707472 -0.0069150804 0.005250483 0.006399243 -0.0013014385 0.0018230109 -0.0050618863 -0.0047857463 0.006418785 -0.002379234 0.0052656503 0.0012134258 -0.0015480965 0.002386975 -0.0031414498 -0.0013948679 0.0010786951 0.0038181106 -0.001097831 0.0005129138 -0.006197227 0.0074180905 -0.0068457425 0.0055233752 0.003050889 -0.0054672416 -0.0041368576 -0.0062017553 -0.0040080305 0.0055238996 0.0075317333 0.001683291 0.00050031673 0.0074409926 -0.0038855989 -0.0010025818 0.0025629979 -0.0050109634 -0.0075793667 -0.0072345575 0.0070474194 0.0041966354 -0.0037408024 -0.0065075327 0.0010108994 0.0022484865 -0.0009728782 0.0009928681 -0.0033760183 0.0037432546 0.0011524884 0.0069358004 -0.007794151 -0.004116852 -0.007111595 -0.00027181115 -0.0061385203 0.003930657 -0.004997543 -0.0046506543 0.003961649 -0.006374819 0.0011368766 -0.0056558913 0.007705017 0.0067451242
670 0.0013819942 0.0045222687 0.0035907933 -0.0046810806 0.0076226145 -0.0075642234 0.006288483 0.0021534218 -0.002386814 -0.0027827052 0.0070874635 -0.00425071 0.0063959938 -0.004694443 0.006555763 -0.00043397956 0.0062051555 -0.0024648216 0.0046712616 0.0068783946 0.0019873735 0.0010294914 0.003936869 0.0062519703 0.006693761 0.0066349786 0.0055097863 0.00625207 0.006718547 -2.5852583e-05 -0.0007841652 0.0013013994 2.5574118e-06 0.0005352944 -0.006719482 -0.007495884 -0.0018083407 0.0069751563 -0.0028496776 -0.0054517137 0.0038120179 0.00083524827 0.0014461102 0.0028538723 0.0027505262 0.0044735326 0.000964297 0.0006597368 0.007066602 0.0021736072 -0.0036741057 0.0051110834 0.0040729 0.0022426303 -0.0024514329 0.0026069032 0.0049721077 0.0055320626 0.0007352857 -0.006665443 0.00020137616 0.0002893908 0.0030804547 -0.0073976247 0.007584274 -0.0054470915 0.004501125 -0.0073670875 0.0075379126 0.0057225227 0.000985669 -0.0026603406 -0.00035207812 0.00033017434 -0.0050071916 0.004488405 0.0018526576 0.002951512 -0.0056679826 0.0066611646 0.0003970731 -0.00015931763 -0.0070871934 0.00316309 0.005283934 0.005746166 -0.0050136913 -0.006137547 -0.0043154014 -0.0004710136 -0.0065140473 -0.0064375903 -0.0014981013 0.0008900678 -0.00742699 -0.0029163547 0.0005037347 0.0053202854 0.0013554618 -0.00049404893 -0.00584484 -0.0052672615 -0.0005425224 0.0058340486 0.004252242 -0.001158352 0.00091586635 -0.0075045126 -0.0010816371 -0.0036142366 0.004538524 -0.0018265722 -0.0037219264 -0.007402433 -0.0009377459 -0.0056232577 -0.0013165763 -0.0031795492 -0.0018547932 -0.0025377618 -0.006372244 -0.00097532105 0.0013210494 -0.003162222 -0.005969885 -0.002802059 -0.0070680734 -0.00059251953
283 0.0045960974 -0.0023135515 0.0024701236 0.0039029047 0.006615959 0.0043917308 0.007428552 -0.00753647 -0.00622084 -0.0052798092 -0.0058341473 -0.0062215766 -0.0060845073 -0.002298927 0.0010907501 -0.002245929 -0.0068876967 0.0038952045 0.00070382096 0.0035862513 0.005621358 0.0059752297 -0.00062863063 0.0028593438 -0.0040027937 0.0014927201 0.0035455227 0.0077239554 -0.0024902262 0.0022182297 -0.0044815233 -0.0017270045 0.0063477308 -0.0030505136 -0.00092857797 -0.007253886 -0.0074037313 0.0069396617 -0.004455408 0.0039474936 -0.005440318 -0.0019207122 -0.006267919 0.0058597876 0.0047870437 0.0041081794 0.006545201 -0.0005441662 -0.0072755693 0.007121614 -0.003850419 0.006131242 0.004323328 -0.00084302854 -0.0059876684 -0.0011404706 0.0048855757 -0.0054422524 0.0011266377 -0.006212389 0.006813553 -0.0022310847 0.0073728925 -0.0044594333 -0.007591972 -0.0067405496 -0.0031834645 0.0036793705 -0.00018901471 0.007205869 0.0024290737 0.0029279431 0.002340898 0.006366132 -0.0018724333 0.0057869833 -0.0074505573 0.0022820989 -0.00053255446 0.0003533261 0.0053461017 -0.0022202916 -0.001841234 -7.8497455e-05 -0.0003888216 -0.0027929386 0.0048785023 -0.005123959 0.0061656246 -7.301569e-05 0.0020381566 0.0025180858 -0.00022004172 0.0013330486 -0.0024536364 0.0037159808 0.00018985197 -0.0025629653 -0.0068082614 -0.0078109996 0.00024435762 -0.0044896957 -0.0008669216 -0.0032860106 -0.0067490824 0.0008297628 0.0046180394 -0.0017273203 -0.0056022005 0.002463623 -0.00030053593 -0.0043133926 -0.0008637728 -0.00049973 -0.0024867887 -0.007777404 0.0059676515 0.0029109437 -0.001975948 0.00570873 0.0003551487 0.005604025 -0.0012090337 0.005854428 -3.3305958e-05 -0.0047479384 -0.003684258 0.0075222068
1833 0.00045395456 0.00080265664 0.006601787 -0.004912816 -0.0013780147 -0.006389781 -0.005214652 -0.0067035053 0.0030707894 0.002140114 0.0043870416 0.002009186 0.0016511837 0.00448059 -0.001653444 0.0024783574 0.006596688 0.0003031809 0.004917643 -0.0052684126 0.0051373607 0.0036636535 0.003969022 -0.007749051 -0.00033550337 0.0025047753 -0.004551554 -0.0052295215 0.0049718013 -0.0053310553 -0.004048828 0.0063451864 -0.005484607 0.006676074 0.0005114237 0.0034419587 -0.002353469 -0.004240418 -0.0069902604 -0.0004784949 -0.003986123 -0.0024031522 0.0063370736 -0.00597493 -0.0049291244 -0.0041122483 -0.005159172 -0.0069067366 -0.00086721964 0.0073796706 0.0062785447 -0.004120388 -0.0063574277 -0.0017635897 -0.0072396733 -0.0039591715 -0.004646724 0.0023633763 -0.0059133144 0.0009770198 0.0017866418 0.0041510276 -0.0015784344 -0.00763411 0.0040794276 -0.004614448 0.0038169967 0.0015427768 0.0068886094 0.0011963574 -0.0014277054 0.0050693518 -0.005523376 -0.0065539554 0.0029602898 -0.0020132428 -0.0032686247 -0.0015038112 -0.007714916 0.0002035452 -0.0008255113 -0.0023214193 0.0019536288 0.0036667148 0.0049551614 -0.0061826147 -0.003897652 -0.006865211 -0.006991434 -0.0029141102 -0.0009950828 -0.0064161196 -0.00420025 -0.0016810736 0.0049552247 0.0012254752 0.00649585 -0.0064970376 -0.0035749022 -0.0006281901 0.0068751397 0.0008643372 0.0012031076 0.0010084258 0.0022832975 -0.007340583 0.0025425013 0.004269285 0.0041299434 0.0034686625 -0.006317475 -0.003171701 0.0065225866 -0.00044772774 -0.0073724836 0.0037372168 -0.004722764 0.005219917 0.0041982643 -0.0039419318 0.0020073662 0.004231751 -0.0028010197 -0.0011844011 0.0071637277 0.0070806323 -0.007338254 0.0059119603
3398 0.0077250386 -0.0022188826 0.0019213641 -0.0021901177 0.006754254 -0.00022131484 0.004403366 0.0071975747 0.0032111304 -0.0055628046 -0.0015045544 0.0007640822 0.0015891222 0.0023079803 0.007382312 0.00343836 0.0077452343 -0.006763831 -0.0044956375 0.0015518013 0.002856385 -0.00077435933 -0.0053997254 -0.0025091115 -0.0066621657 0.0073521202 0.0029097153 -0.0061557954 0.0024898192 0.003260809 -0.0044054566 -0.0046193684 0.0008112239 0.0070015974 -0.007536157 4.914589e-06 -0.005363238 -0.0007283194 0.0023757825 -0.0039296616 -0.0021687532 0.00052780285 -0.0049704853 0.0056926394 0.0034206426 -0.006686355 -0.001678884 0.002472289 -0.0065059327 -0.0055225883 -0.006604485 -0.0042957747 0.006918826 0.0055289445 0.0022544637 -0.0066832574 0.0044869008 0.0036198571 9.295065e-05 -0.0069085453 -0.0014716638 0.00014911313 -0.0060608927 0.0019298121 0.0003779428 -0.005515648 -0.0064604757 0.0047204616 -0.0065238206 -0.004359207 0.0043594725 -0.00037996192 -0.0023862226 -0.004058107 -0.0009358963 0.004118529 -0.004645656 -0.003888417 -0.0038661119 -0.003715897 -0.0062344475 -0.0076222382 0.0059235673 0.006247462 -0.003347123 -0.007287548 -0.0014629029 -0.0028970875 0.007108289 0.002296986 -0.0046704253 -0.0026236605 -0.007736315 0.0015188446 -0.003115913 -0.0021161744 0.0040441332 0.0059367362 0.0034248643 -0.0053284504 0.005233314 -0.0075248377 -0.0054588187 -0.006254688 -0.0017679147 0.00037487503 -0.0029470958 0.0014416976 0.0071931137 0.005217231 -0.0008240817 0.0071038743 0.001216325 -0.0015421184 -0.0051523047 0.0050577363 -0.007085627 -0.001481723 0.006009686 -0.002020985 0.001254838 -0.0057391524 0.0038891258 0.0057602087 -0.0072722966 -0.0025608242 0.006166202 0.0022920482
3394 1.1361204e-05 0.00026820973 -0.007707366 0.007763086 -0.0015635472 -0.0038182195 0.002147844 0.0008046655 -0.0046340544 0.004525503 -0.0019558324 -0.0048268596 0.005652898 0.00504959 0.0068908455 0.0009089019 0.00039843842 -0.0061950153 0.00363194 0.0073133865 -0.0005309684 -0.0013773199 -0.0029790374 -0.0003842786 -0.0059511214 0.004444723 0.0011647549 0.0072599575 -0.005019066 -0.0039759614 -0.004870821 -0.005684915 0.002153568 0.0038239202 0.001048414 0.0027662106 -0.00733459 -0.0008356171 -0.00604913 0.002306357 -0.0020985436 0.0069398433 -0.002683078 0.0053423587 0.003214742 0.0010659322 -3.161095e-05 0.0063847927 0.0018451074 0.006451741 0.0026057698 0.004236806 0.0039858697 -0.005959986 -0.004522344 0.00096420106 0.00015180372 0.0016760444 0.00083253346 0.0059271054 -0.0034544487 0.0002535917 0.005473856 0.0017592143 0.0033146488 0.0033619357 -0.0009887861 -0.006502012 0.002378325 -0.006932142 -0.0020787967 -0.007337535 -0.0003609499 -0.0061431965 0.005792169 -0.0038205609 0.007748672 -0.007056457 -0.0033688871 0.001506974 -0.0023417426 0.0011295183 -0.0028756596 -0.0006985711 -0.004474505 -0.0076726666 0.0049524987 0.00029973034 0.0050855596 -0.005837991 0.002862149 -0.007732724 0.0059458837 0.004628552 -0.004779281 0.006416453 -0.004359412 -0.0066824993 0.0011720983 0.0024843458 -0.0063254694 -0.006979893 0.007165096 0.0012841988 0.00068306737 0.001936119 -0.0027399557 0.0013555 0.0015297523 0.0076609384 -0.004381352 0.0017758021 0.0049274554 -0.0052166656 -0.006979523 0.0067626704 0.0053422274 -0.0031404486 0.004486207 0.00061603077 -0.0039145965 -0.0010544974 -0.0038268473 0.0047927946 0.0015327074 -0.0064999526 -0.00011426583 -0.0020685475
3391 0.0051613487 -0.0008950699 0.0059891427 0.0015220903 -0.0029925937 0.006373561 0.0023043249 -0.003101592 -0.0043748766 -0.0024134899 -0.0040113833 0.0026875949 -0.007252058 -0.004547541 0.0026103305 0.00015441421 0.0046836734 -0.0028168587 -4.6677887e-06 0.0019335952 0.0042661373 0.0012588967 0.007668824 0.0029048538 -0.005611077 -0.0010984959 -0.0065376014 -0.004161776 -0.0017151544 -0.0075841015 0.007261945 0.0015874747 -0.0009071734 -0.004299771 -0.006648306 -0.00773709 0.006987801 -0.0019526761 0.0035877945 -0.003529191 0.0077797333 0.0028552506 0.000801323 -0.003159456 0.0009457981 -0.0020678155 0.005742764 0.0034986353 0.00077084545 0.0027211625 0.0029018363 -0.005301074 0.0069771586 0.0013564304 -0.0045214565 0.0067630336 -0.0010089669 0.006396123 -0.001177243 0.005459103 0.0021299971 -0.0034060385 -0.0029280689 0.00718108 0.0012436453 -0.0046929773 0.00027314294 -0.0015331237 0.0012379102 -0.006029154 0.005768818 0.0010251766 0.0061524976 0.0034789406 -0.0034327125 0.002931782 -0.0004988164 -0.0077001946 0.0064391643 0.007538573 0.0075417114 -0.0029685972 -0.0066012684 0.003771644 -0.0059808446 0.0066656657 0.0021564458 0.0043776073 0.004778511 0.00036313105 -0.0016366364 0.0006040409 0.0076843426 -0.005566044 -0.0012128549 -0.0018426105 0.0038015684 0.005039093 -0.003228156 0.0028309915 -0.0035008807 0.0025550518 0.0063816197 0.00283485 -0.0035725087 -0.0023509096 0.006145629 0.0075031724 0.0045446046 -0.0025578402 -0.001426002 -0.0048885886 -0.0033559175 0.0026362203 -0.0050685517 -0.0051688757 0.0063370466 0.0074261418 0.0063598314 0.0011800267 -0.0068717888 -0.005935286 0.0012281863 -0.0074434616 -0.005789226 0.0015813466 -0.0022821631 -0.0071539143
58 0.005012057 -0.0069930796 -0.0057386504 -0.0013680812 0.0013265694 -0.00080798473 -0.0040658386 0.00514004 0.006861571 -0.005790701 0.0076605985 0.0057551935 -0.0058286916 -0.0014843419 0.0033219047 0.0055153165 -0.002862255 -0.00544772 0.0036912775 -0.0070614116 -0.0045705494 -0.0010027196 0.004281967 -0.004442923 0.0037381137 -0.00033980142 0.0020837998 0.0050030695 0.0011075241 0.006022324 -0.0002518762 -0.0064560184 0.0071707023 -0.003795471 0.0036889892 -0.0030490495 -0.0057261866 -0.005088007 0.003654167 -0.0005151816 0.0011408357 -0.0069752177 -0.004020744 -0.004730018 0.0065724906 -0.006794869 0.0039256597 -0.00067293085 0.00014795084 0.006874811 -0.002801123 -0.0054197954 0.00059654657 0.00604909 0.0071256747 -0.0028786808 0.0021350058 0.0038614152 -0.004134413 0.005353543 -0.005041383 0.0016412837 0.0035837954 0.0034258692 -0.0036455346 0.002064392 0.005710909 0.0067278817 -0.0074316645 0.0043552713 0.0038812999 -0.0012459047 0.0071772533 -0.0032664146 -0.0013661897 -0.0053619593 -0.0029505277 0.00018959027 -0.0025558854 -0.004232237 0.005131933 -0.004142856 -0.004938774 0.0059695058 0.0075399876 0.0031210305 2.0567328e-05 0.00061663426 -0.00075121317 0.005361447 -0.004885152 0.0003965702 0.0033532418 -0.0016495418 0.0006983457 0.0028985478 0.007585979 0.0016998127 0.007422002 -0.004554565 0.003750517 -0.0028346702 -0.0033318829 0.0009529358 -0.003224453 -0.004396229 0.0024554795 0.006513795 -0.0051138 -0.0071202675 -0.0026029432 0.005880653 -0.007569544 0.0074986545 -0.00032675546 0.0018006284 -0.0014450476 -0.0045016473 0.0024224184 0.004839913 -0.0055100825 -0.0009166533 0.0012182975 0.0033195093 0.005579179 -0.002770856 0.005683897 -0.004352321
2551 -0.0017147074 0.0070974706 0.00420494 -0.006628951 -0.001293472 -0.00690486 -0.001282718 0.0044184513 -0.005795545 0.0043047415 0.004757859 -0.0029456867 -0.007543605 -0.001967826 -0.0019945493 0.0029363567 0.006969285 0.0015592985 -0.0016496377 0.002319974 -0.0053154053 -0.00101043 -0.0011587767 0.007503801 -0.0045387214 -0.005500189 0.0018446473 0.0020584138 -0.005582791 -0.004591995 -0.00092423614 -0.0025803316 -0.007012289 -0.003163687 -0.0023169955 0.0050802073 0.000760857 0.0012490712 0.00021745265 -0.002643858 0.002423726 0.0005559884 0.004674092 -0.00060564 -0.006954114 0.00068965275 0.007752984 -0.004100916 -0.004075364 -0.0019677738 0.0067058196 -0.0006497223 0.0073580993 -0.006512586 0.007044564 -0.0075883763 0.007187156 0.0014630575 0.0020784754 -0.0045770323 0.0065931138 0.0047215866 -0.0042868266 -0.0074209524 0.005444064 -0.0043249456 -0.007282283 0.0020291852 -0.0038890708 -0.0057500396 0.0076019987 -0.0012389254 -0.0011804793 -0.003151956 -0.0034366036 -0.0036167074 -0.0043716514 -0.004142034 -0.0062674237 0.0074365977 0.0049992697 -0.0028177295 0.001936283 -0.005970699 0.005877423 0.0064880745 0.0006167423 -0.005338274 -0.002310725 0.0036984133 -0.0022963937 0.0024816198 0.0073505593 0.003400864 -0.004019906 0.0042711664 -0.0022493685 -0.004995266 0.005474845 -0.0072296355 -0.00088332593 -0.0010822974 -0.0065749586 -0.00086124986 0.0043728575 -0.0041153533 -0.0054891687 0.0048439596 -0.002676906 -0.006109028 0.00022919569 -3.8907863e-05 0.0058913333 0.00044476707 0.006158171 -0.007666236 0.0031509902 0.0048578987 0.0008042529 -0.002215946 0.0008020429 -0.00065556355 -0.006334585 -0.0052995877 0.0009376211 -0.0015764637 0.0074604833 -0.00074173976
2542 0.004780231 0.0015985454 0.0063278824 -0.0072582187 0.0018693199 -0.0011337949 0.0016835937 -0.00017171819 -0.005187993 0.007070669 -0.0022214046 0.0014955578 -0.0050325766 0.002901733 0.0078092227 -0.0009345738 0.0051407954 -9.712577e-05 0.006193892 0.007539789 -0.00030569267 -0.001326831 -0.007438762 0.0077147447 -0.0019788798 0.0017103059 -0.0013272548 0.006505741 0.0065185763 0.0012006918 0.0022544265 0.0050266134 0.0017560162 0.005034622 0.00011464115 -0.0017855242 0.004146292 -0.0026681833 -0.0020434456 0.0068685384 -0.007152104 -0.0026669083 -0.0022844747 0.0044288514 0.006205857 -0.005040318 0.0045269774 -0.00017005671 -0.007056142 -0.0019083349 -0.0012377594 -0.0035006413 -0.0006201416 -0.0040925266 0.0046410896 0.007268266 -0.0012403633 0.0026380802 -0.0005843872 -0.00054658763 -0.005477001 0.0011382066 0.0030489787 0.005398494 0.005108469 0.0027629714 0.0036419304 -0.005806336 -0.0010832027 -0.0045176893 0.005313318 0.006114565 -0.0033390792 0.0009012949 0.003991722 0.0014136601 0.00061399676 -0.00526575 0.0076817805 -0.0056716427 -0.0047138706 -0.0044266265 -0.0049593467 -0.0027273912 -0.0073439805 0.0009204168 -0.002929871 -0.0019931933 0.004519485 0.002773814 0.0014225924 -0.0010734769 0.0077167796 0.00022387505 0.0039183246 0.007060742 -0.0076301396 -0.0071526347 0.007752209 0.0021381155 -0.0014731102 0.003690675 -0.0033714091 -0.004998155 -0.006451099 0.005632906 -0.0019135717 -0.005893099 -0.004617489 0.004824627 -0.001937258 -0.004801398 -0.0012640478 -0.0011512125 -0.0025428468 -0.0016322173 0.0032076044 0.0011301562 -0.0027268296 0.0021034172 0.0040851114 -0.007180321 -0.005904951 0.004919037 -0.0069828946 0.00041267462 -0.007026421 0.0065389285
2533 -0.003354326 -0.005172264 -0.0010810709 -0.0008700583 0.0058851764 0.007116816 -0.00027404074 0.0021043578 0.0037009353 0.00011152681 -0.0045156265 -0.00046439003 0.0017054491 0.0064857136 -0.0028065043 -0.0076918323 0.0042054113 0.0076646013 -0.005511543 -0.00045508333 -0.003956667 0.005027364 0.007544768 -0.000260205 0.004015973 0.0051083444 0.0034445645 -0.006274401 0.0024239402 -0.0011612391 -0.0016883435 0.0042203777 -0.0010289531 0.0077558355 -0.0004993584 0.00020596012 -0.0017919056 -0.0066511678 -0.0076649617 0.0038677854 -0.0051725274 0.0023167944 0.0021674866 -0.0054740487 -0.0024500135 -0.0045371577 -0.006691059 2.9817224e-05 0.007646137 -0.005215533 -0.0034076981 0.006508068 0.007264463 0.0076682856 -0.0077283727 0.0039437143 -0.005189134 0.0053748786 0.004797577 -0.0026371935 0.0053782314 -0.006145619 0.003554348 0.0035784151 0.004627564 0.004593361 -0.0020807404 0.0030434392 -0.004772287 -0.0050460715 0.0021429816 -0.0073954593 -0.00023366511 0.0008524507 0.0062534856 -0.00546999 -0.0018148078 -0.0032079192 -0.0040843273 -0.00036866218 0.0036025112 -0.00389212 -0.0012856694 0.006762796 -0.0010222159 -0.0027904809 0.0058059655 0.00095250364 -0.00026599504 0.007390449 0.0063481303 0.0026701987 0.0026236363 -0.0017849319 0.006323844 0.0039538173 -0.0042388625 -0.0047883894 -0.00046824384 -0.006187856 0.0026302421 -0.007206577 -0.0012066932 0.0026220111 0.0023795506 0.0024685636 -0.00708099 0.0026712362 0.004176826 0.0027093207 0.006088216 0.0012933975 0.0048986087 0.006902433 -0.0007364508 -0.0006275326 0.001739854 -0.0058855433 0.004397153 -0.0039063403 -0.002555537 -0.0014317324 0.0064189583 0.0017550047 -0.00070909876 -0.0022228714 -0.001649959 -0.0010045329
2560 -0.003971031 -0.0032252595 0.00014644116 0.003558335 0.0014032377 0.005392721 0.0004997775 -0.0025190068 -0.0057604006 0.0046929736 0.0054452606 -0.004733051 0.0036593657 0.0074207364 -0.0049849097 -0.002247612 -0.0071017975 0.002521962 -0.002687703 0.0015970403 0.007374594 -0.0065288534 -0.00727582 0.0013411576 -0.006276886 -0.0070839897 -0.0073087662 -0.00022531208 -0.000860706 0.00058106706 -0.0010467367 0.007062462 0.006865415 -0.0049666604 0.0067936303 -0.0070532095 -0.0010456471 0.001984247 -8.606911e-05 -0.002969413 0.00036627334 0.00078557245 -0.0073507586 -0.0038202219 -0.006024109 0.0029742913 -0.00069132727 -0.0058465498 0.0044028563 0.00018573273 0.0021077236 0.004242845 -0.003304909 0.0061288625 -0.0061388304 -0.0026898133 -0.0057550874 0.0007609576 -0.0057736514 0.007080226 0.00432365 -0.005649289 0.0048237694 0.005159596 -0.0057931915 0.0036365548 -0.0060324203 0.0072817737 0.0036643827 -0.00017894618 -0.006985748 -0.0006989259 -0.00021171849 0.0007083593 0.006767394 -0.0021688798 -0.006782826 -0.006901359 -0.00082620885 0.0010717697 6.815232e-05 -0.001721045 0.006677786 8.315127e-05 0.005014587 0.0031179907 -0.0056274906 -0.0016590916 -0.006075304 -0.0052793967 -0.002464042 0.005168123 -0.00065173954 0.0069407476 -0.0017904565 -0.0041439952 0.0030588321 0.0017316202 -0.00021904893 -0.0019163135 -0.004689481 0.0031544287 -0.0059465384 -0.006958234 -0.007157443 0.0065531787 0.0031254562 0.0055407546 0.0077266395 -0.0056451857 0.0031472696 0.002204013 0.004808425 -0.0026468383 0.007289542 -0.0045308005 0.005493914 0.0054294877 -0.0003062226 0.0039531123 0.0051911334 0.0012058942 0.0057566576 0.0018817773 -0.0011881012 0.0057768766 0.0036619902 -0.0024783127
2614 0.0012860261 -0.00010936521 0.0038775448 -0.0042284634 -0.0032692272 -0.00073277485 0.0029858472 -0.0051418385 0.0061294 -0.0024123741 0.004484359 0.0022375295 0.005330066 -0.0034892699 -0.0025016041 0.0023884708 -0.0021678247 0.0046425974 -0.0046517393 0.002024726 -0.0005646618 -0.00047989842 0.0019832132 -0.0017072642 -0.0033261878 -0.006681715 0.0019439692 0.0041599283 -0.00458376 0.007116493 0.0031534638 -0.0040433016 -0.0010259598 0.0030674795 -0.005472976 0.0016057249 0.0043020044 0.00488659 0.0042395256 0.002859395 -0.0021500671 -0.004748828 0.0063749384 -0.0057044104 -0.0012656823 -0.002549815 0.005069308 -0.004904245 0.00265274 0.0015996285 -0.0031867316 -0.006439602 -0.006279473 0.0027387897 -0.007469747 0.004458436 -0.0022753347 -0.0071664536 -0.004012592 0.0060502114 -0.0013448531 0.0050047934 -0.0072472943 -0.007145728 -0.0040642014 0.00074393675 -0.005605949 -0.007379707 -0.0069419285 -0.0003617294 0.0057918057 -0.006545772 -0.0041664215 0.0011855494 0.0025932295 -0.0066079423 0.006146688 -0.006419043 0.0037002368 0.0073557105 0.004422011 0.0048225494 0.006434868 0.002697588 -0.005581608 0.004489897 -0.006494485 -0.0044717686 0.0046138093 -0.006194846 -0.0045862338 -0.0027799718 0.002650828 0.004077888 0.0016056839 0.0039910562 -0.0020524012 0.0033999868 -0.00550656 -0.001297066 -0.006050626 0.0001357859 0.0036704363 0.0037500244 -0.0036369301 0.0013675569 0.006102521 -0.004354546 -0.0029591834 -0.00046682823 -0.0036873128 0.006794422 0.005892288 0.00720423 0.0073147546 -0.0066022174 -0.0003747968 -0.0059424853 -0.0037576305 -0.0069060205 0.0026685735 8.316338e-05 -0.005402875 0.0062211594 0.00074451603 0.00023325905 -0.0027844263 -0.0026145363
2488 -0.002064404 0.0059548244 0.0018707756 -0.0040397896 0.0036952654 0.0007738257 -0.0021352721 0.0060230074 -0.0030837804 0.005805875 -0.0032933084 -0.0057472363 -0.003512917 -0.0030457014 -0.0005503148 -0.0014410233 0.0039931387 0.0042582564 -0.0013584653 0.002916948 -0.0015847385 0.0005739108 -0.0010675294 -0.0019240817 -0.003685018 -0.003329521 9.9236146e-05 0.0012886319 -0.0073818043 0.004747154 -0.0013129823 -0.0023237336 -0.0037453705 -0.0033723041 -0.0037504677 -0.0076593524 -0.00060735457 -0.0060878024 -0.0037593944 -0.0057617035 0.0077622524 -0.0010592928 -0.006058002 0.004309914 -0.00630184 -0.0014939727 0.0021370826 -0.0055305827 -0.0068230676 -0.0051887287 0.005834643 0.007076326 0.0031183576 0.0018778779 0.003232696 -0.0031800233 0.0076234667 0.0053822817 0.0032138545 0.0069913194 -0.0065576276 0.0007297555 0.0069470387 -0.00073369965 -0.0052639656 -0.0017724857 -0.00217845 -0.0019517392 -0.0014407681 0.0056895847 -0.00023474172 0.0033143265 -0.0029308833 0.0064315423 -0.0050798096 -0.0072955294 -0.0032339739 -0.0057545304 -0.0038098553 0.00038656034 0.0018631658 0.0013592718 0.0039121713 -0.0010903478 0.0017829686 0.00027456507 0.006129221 0.0062709283 -0.0015417906 0.0009823693 -0.0047124308 -0.003717646 -0.0054459563 -2.4754554e-06 -0.0038396092 -0.0031611696 0.0011755498 0.0020390684 -0.0071236026 0.0013651643 0.0040079765 0.0032504406 -0.0022710627 0.007406718 0.0073822467 -2.1225773e-05 0.00066820066 -0.0072252117 -0.0037538363 -7.929746e-05 0.0031589773 0.0001237914 -0.0068161227 0.0045428677 -0.0057930294 0.00668264 0.0043096766 -0.005293317 0.002220693 0.0060299076 -0.0047726855 -0.005114776 0.007186747 0.0014099935 0.0075862883 -0.0077395597 -0.0011729766 0.0053904913
179 -0.0011431109 -0.0013723252 -0.0055304794 -0.0044263825 -0.0050946167 0.0069713015 -0.0012380322 -0.0064714802 0.0062624663 -0.0023131948 -0.0010406291 -0.0005279742 0.0022084499 -0.0036849845 -0.000201419 -0.0022230586 0.006856203 0.005374141 0.0008590184 -0.004739292 0.0024473527 0.00088788103 -0.0047846716 -0.004494 -0.0024192054 0.0018644547 -0.0063398564 -0.003899877 0.0063269734 -0.0028846161 0.0062171305 0.0004185997 -0.0043237284 -0.0038782023 -0.00016811118 0.00358803 -0.004752716 -0.004303281 -0.0053210864 0.005270672 -0.0018779458 0.003137541 -0.0012706164 -0.0057933377 -0.00099089 0.00031492487 0.002801869 -0.0067781303 -0.0053166896 -0.005122587 0.002337725 -0.0029235603 0.00079463795 0.003247694 0.0035303347 0.0018481389 -0.0022445936 0.00050050486 -0.0042122426 -0.0049630683 0.006809162 -0.0031645922 -0.007279684 0.002915009 0.0066048196 -0.00014709402 0.0017693285 -0.0027712472 -0.0032753153 -0.0067342464 -0.006135159 -0.007093151 -0.004664532 0.0066311685 0.0073723914 -0.0013119001 1.1934899e-05 0.0061350437 0.0009863721 -0.0040197438 0.0020531658 0.0014107702 -0.002911238 -0.0038204296 0.0075341575 0.005975576 -0.0066954233 -0.0043165125 0.0011104774 0.0007149186 -0.006524222 0.0072876327 -0.0042045303 0.003594773 0.0072118044 0.00085179135 0.0032973317 -0.002121482 -0.007564334 0.00046864804 -0.0008467864 -0.007750554 0.0054731388 -0.0057703033 0.0040006684 -0.0034515774 -0.007180528 -0.00708065 0.0048700776 -0.004090108 0.004103802 -0.0012328811 0.0075785676 0.0055963313 0.0077271517 0.00654752 -0.0061449083 -0.0074898936 -0.0043521775 -0.00062659103 0.0039126445 0.0028670486 -0.0015822081 0.003942861 -0.0026558945 -0.0053232657 0.0036801025 -0.007699428
2515 0.0006952053 -0.0039159246 0.0059335055 -0.0029031243 0.0022007683 -0.004888081 0.0075118905 -0.004367494 0.002788635 0.0025312547 0.0069777835 -0.0043479865 -0.003416852 -0.0048617683 0.004804562 -0.0035805637 0.0037587825 -0.0006969087 0.0056818184 -0.004715885 -7.6708384e-05 -6.846711e-05 -0.006673945 0.0068276403 -0.0016442109 0.0050275354 7.1463175e-05 0.0039275037 0.0017294111 0.00691392 -0.006507504 0.00658858 0.0067571895 0.00082871784 0.003455651 0.0029957145 0.0031685904 -0.002301895 0.0022223135 0.000598846 0.0037705507 0.0065727336 -0.006051652 0.00011906028 -0.006822046 -0.0012302045 -0.0070564514 0.002470973 -0.0012323717 -0.00054579694 0.0050211605 -0.006326951 0.0008981051 -0.001891559 -0.0029144827 -0.005689798 -0.0062309373 0.006478495 -0.0058108177 0.0037637856 -0.0029584356 -0.0009482736 0.002194725 -0.0067066113 -0.004418047 -0.0060464386 -0.0073519815 -0.0037122564 -0.0024689864 0.00037946366 -0.0005448563 -0.006153497 -0.0029588426 -0.0021424452 -0.004988038 -0.004983017 -0.002037446 -0.0061864145 -0.00645292 -0.0059263194 0.0027766228 -0.00592848 -0.002899032 0.0051786564 0.00578091 -0.0049983775 0.0053111725 -0.006071154 0.000102975406 0.005169185 -0.0022185678 0.0072032968 -0.0002535591 0.003659809 0.0054315636 -0.0066724634 -0.0047425237 -0.0056995694 -0.0009148065 -0.005538691 8.537248e-05 -0.006284089 0.00039879978 -0.00030397996 0.005056422 -0.0069387853 -0.002479259 0.00460809 0.00721437 -0.0013946705 0.0006072251 -0.0047613354 0.0006415015 -0.0063589653 -0.0059676645 0.0010804124 -6.3625164e-05 0.0043450342 -0.0076067485 0.0012930855 0.0012305332 -0.004099683 5.5569224e-05 0.0047328565 -0.005156152 0.00022591744 0.0030430937 0.0013323883
3393 0.0022347625 0.006370806 0.0052267434 0.0027391035 0.0062310966 -0.0059897015 0.0058854567 0.003038684 -0.0046102433 -0.0032750946 0.004995222 0.004531393 -0.0077034375 0.0009749718 -0.00031297375 0.00063569285 0.005529564 -0.005603846 0.007532131 -0.0073887175 0.004859061 0.0074190106 -0.002988766 -0.007338157 0.0048313197 -0.007003017 -0.0064806696 -0.0006481474 -0.0051909722 0.0068341717 0.006134037 0.00064749736 0.0062515894 0.007691171 0.0040545324 0.0033740764 0.0042013004 0.005010457 0.0036942465 0.0049892114 -0.0058201235 0.006921972 0.006470708 0.0073269755 -0.007045171 -0.002692978 -0.00026738457 0.0032554036 -0.0064195106 0.00013132207 0.0047073606 0.0074806614 -0.0022203755 0.0014265506 0.0049409447 -0.0015620291 0.001528522 -0.0072850697 0.00055504125 0.003577305 0.0035142219 -0.0076145763 -0.0040229317 0.0023208978 0.0012434758 -0.003672069 0.0045463108 0.0027435673 -0.00611315 0.0076846853 -0.0060287463 -0.002367247 0.0076116016 0.00089342706 -0.004332115 0.00088017434 -0.0031964323 -0.005267591 -0.0060611777 0.0037173117 -0.007056933 0.0031729117 -0.0043170815 0.0042405343 -0.0034105526 -0.0043622795 0.004961905 -0.0067541488 0.0010413919 -0.0016605267 -0.0052233934 -0.0059806844 0.005278983 -0.003488076 0.0035827346 -0.0075473497 0.001490077 -0.0015273606 -0.0046078917 -0.0021769153 -0.006763323 -0.002715148 -0.0020141453 -0.0017881282 -0.003989555 -0.007183646 0.0041746926 -0.001016004 0.0048231147 0.0024017906 0.0066790907 -0.0027467124 -0.0069490885 0.0010415772 -0.0070214598 0.004720917 0.0065957606 0.00039222743 0.0060175713 0.006669718 0.0032818057 0.004230447 0.0071317116 0.0008961968 -0.006446059 -0.006504529 -0.0013928022 -0.00048896763
87 0.0068916585 -0.0072740437 -0.0020257067 0.0071196286 -0.0011267513 -0.007091325 0.0015740292 -0.0045618396 -0.00428319 -0.004954867 9.8496675e-05 0.00564461 0.003218214 0.0063698636 0.0069123143 0.0035320316 -0.004727494 0.0055224365 -0.0074432204 -0.0037431847 0.0062502753 0.0061778044 -0.004235833 -0.0062321667 0.006308889 -0.0029782224 -0.0031760866 0.0056128222 0.004237364 0.0029826108 -0.0009606611 0.0067726616 0.0066032475 0.005448268 0.0070831245 -0.0045140954 0.0007802313 -0.001274026 0.004953075 0.007639218 0.0040371325 0.0031716907 0.005103345 0.0045922743 7.995777e-05 -0.006518202 -0.0016955063 0.0070898654 -0.0039687175 0.00078820623 0.0038083605 -0.005412508 0.00639912 0.0011511296 0.0018966794 0.006490429 0.0011379886 0.00069504045 -0.007362608 0.00770502 -0.007707851 0.006680183 0.00394738 -4.4190325e-05 -0.006151029 0.0072981706 -0.0010765921 0.0041770535 -0.0023670103 -0.0038319249 0.00012811925 -0.006273591 -0.005188429 -0.0073869927 0.004179622 0.0003351625 -0.00071545783 0.003983764 -0.0015393281 -0.005769346 0.0022410005 -0.0046575125 0.00038210675 0.0074035265 -0.00074578077 0.004796952 0.0034868391 -0.0027614757 -0.004083094 0.00691666 0.0016443944 -0.00035344902 0.00069953036 -0.0038447836 0.0027633728 -0.002421745 0.0032920958 -0.0035598287 -0.00061947014 0.003048487 -0.0055853687 -0.0019709058 -0.0068139173 0.0012158062 0.0015708581 0.0018807193 0.00084428955 7.047411e-05 0.0017288662 -0.00073922146 0.0046262583 -0.0023081796 -0.0039725667 -0.00416225 -0.0075538186 -0.006338219 0.0016546715 0.003112889 -0.0045123072 -0.00756385 -0.004808902 0.0036471812 -0.0070866607 0.003969216 0.00496237 0.004781943 -0.005961502 0.0022131726
3403 -0.004260092 0.007068052 -0.0033692904 -0.0018368512 0.0040790504 -0.0006432757 0.003978719 -0.003296867 0.0038914876 -0.007652357 0.004746044 -0.0009713955 -0.0043805 -1.5791506e-05 -0.00095593557 -0.00056406576 -0.0013763737 -0.0072446847 -0.0060962467 -0.0053126086 -0.006740761 -0.0035445169 0.0071781995 -0.0014157249 -0.0059350245 -0.004604589 0.002816598 -0.0021224646 -0.0012177862 -0.0033233361 0.004657737 -0.006118832 -0.005857651 0.005879525 -0.005437933 0.0016849665 0.00028902944 0.0075528724 0.0033130245 0.0016149273 0.002152754 0.0017996002 0.0017186347 -0.0021266742 0.0031962395 0.004765792 0.006982425 -0.00058471784 -0.0009548599 0.005052277 -0.0066132173 -0.0005126903 -0.005213473 0.0037369588 -0.0069900323 0.0025389092 0.007034952 -0.0016152291 -0.006898433 -0.0063895583 0.0025359895 -0.004176705 0.0050372323 -0.0009288052 0.0061356816 -0.0003930237 -0.0048567113 -0.0044542756 0.0006007515 -0.0037325146 0.005126126 -0.0027489588 -0.004395932 0.0007448569 -0.0038043335 -0.006415453 -0.0040998915 -0.0014544642 0.000340553 0.0028425353 0.0053663226 0.0052562235 0.0045791874 0.0002502259 -0.004548042 0.0070309276 -0.0005099932 0.003679716 -0.001112828 0.00452982 0.004142995 -0.0057009943 -0.002142679 8.5103326e-05 0.0015894976 -0.007257565 0.0037805848 0.0026344676 -0.00013588276 -0.002732291 -0.0059411433 0.005934418 -0.0067212386 -0.0057689017 0.0034778574 -0.0066495547 -0.0025657387 -0.0016332474 -0.0014865464 -0.0053400705 0.0033566607 0.0007803608 0.0028567119 -0.001037756 0.005417986 -0.0074481145 0.004567357 -0.0040089386 0.0013306895 -0.005422703 -0.0019384567 -0.005022536 -0.0026179617 0.007601195 0.0021013413 0.0012541711 -0.0047529927 0.0043538855
3390 -0.006350482 -0.0017917762 -0.0050534457 -0.004986138 0.0017945506 -0.002567743 0.0018985001 0.0030597178 -0.0048984494 -0.0013632057 -0.0021581976 -0.0076533686 -0.0076864026 0.0008671945 0.0034225564 0.00018163305 -0.0038062464 0.0028342064 0.0013192389 -0.0073762573 0.005615969 0.0060727755 -0.0060402825 -0.0005972544 0.0047119623 -0.0021722373 -0.00026337523 -0.0032967487 0.0047770543 0.0054652793 0.0016298806 -0.0036715288 -0.0014297748 -0.0031240527 -0.00763042 0.0061023375 -0.00047829282 -0.0004719235 0.005534853 -0.00705955 0.0049424795 -0.005910501 -0.0041860985 0.003965307 -0.0027301721 -0.0027242117 -0.004928195 -0.0030546049 -0.0020785825 -0.003199203 0.007385931 0.0073862635 -0.00029810704 -0.00022218004 -0.004407672 0.0061856145 -0.0038629249 0.0046018977 0.0071194964 0.004495835 -0.0007407414 0.004328795 0.0054257875 -0.0030318648 0.0005224198 0.005069362 0.004585943 -0.00013857521 0.0018594526 -0.0050889617 -0.0073127775 -0.0038653258 -0.0042092884 0.00045861397 -0.003100182 -0.00028874073 0.0059644943 0.0076060053 0.006153032 0.0018665763 -0.0021197898 0.0018997807 -0.0021014977 -0.006992301 0.0053851884 -0.0067566717 0.0029591247 -0.0030908082 -0.004330514 -0.0008152975 -0.0051273284 0.0067063356 -0.0053733857 -0.0070004268 0.0045048892 0.003487506 0.00369645 0.001896048 -0.0029105525 -0.003997891 0.0013844958 0.0065207537 -0.004415841 -0.0018612836 0.0014440315 0.005251713 -0.004997967 -0.0035373075 -0.0020613829 0.0010428363 0.0041963113 0.004335447 -0.0068042995 0.005681726 -0.0019548628 -0.0022208123 -0.0069207465 -0.004511783 0.007381724 0.002412133 -0.0062834118 0.0021932824 -0.0055255927 -0.007076473 0.003020144 0.0015913816 0.0009801947 0.006911192
727 0.004891173 -0.00396143 0.0021311166 0.0019883616 0.0018733013 0.0065102 -0.0054011066 -0.0017964309 0.0007882416 0.0049826223 -0.00050682295 0.0061938427 -0.0036343094 -0.007055781 -0.0055110147 -0.003232574 0.0074869525 -0.004005676 -0.003787782 0.006385533 -0.0058251442 0.0015701251 0.004465659 -0.0058830753 -0.00020545069 -0.0018501477 0.004348143 -0.0035628537 -0.005159991 0.007727921 -0.0036118347 0.0059408303 -0.0066052834 0.0054823 -0.0026482558 -0.0061053596 -0.00091483165 -0.0018518772 -0.0014207466 -0.00091980863 -0.005091493 -0.0027694423 -0.0024979198 0.0060330424 0.0045835245 -0.0006986344 -0.00376294 0.004134613 -0.006904402 0.0012886636 0.003133595 -0.0015216367 -0.003534629 -0.006427886 -0.0064745424 0.005568267 0.0028414857 -0.00030188914 0.0075865192 -0.0066751065 0.0004603695 -0.00034710672 -0.006305052 -0.007109248 0.0056162206 -0.002838198 -0.0061726924 0.00621303 -0.004886154 -0.0024389504 0.001387204 -0.0026182914 -0.0062224353 -0.0030634906 -0.0070422823 0.0010919981 -0.0036161728 -1.5689991e-05 0.0021282416 -0.0018539606 0.0068891933 0.0055019874 -0.00043038186 -0.00049610157 0.0006643338 0.005273695 0.0069909263 -0.0015062485 -0.0012441836 -0.0023218477 0.00039300416 -0.0050585754 -0.0014589652 -0.0067563253 0.0005140938 0.0011204723 0.0029123817 -0.00224528 0.004633258 -0.005529564 0.007669299 0.00041648373 0.0017933715 0.0034033107 0.00032762624 0.0020278841 0.0012614429 -0.0075132465 -0.0024589412 -0.0020270124 -0.0072365785 0.0026838444 0.0037498418 -0.0016261851 0.005795018 -0.0009459518 -0.0002177069 0.004517528 -0.006619732 -0.005399105 0.005743134 -0.0051424466 0.006615582 0.0041796872 -0.0062861824 0.0065633664 0.0049361214 -0.0052459417
2057 -0.0066115055 -0.0069020763 0.0029931376 0.004950625 -0.001667751 0.0010479186 -0.006557514 -0.0039995117 0.0036751851 -0.0070811305 -0.007216569 0.00078759156 -0.0067069447 -0.005420236 0.0037133517 0.0062543405 -0.005749359 0.006332894 0.0073276293 0.0036811708 -0.003443175 0.0075548813 -0.0060368953 -0.003039658 0.0015109302 -0.0059621213 -0.007713847 0.002237576 0.006391477 -0.003994841 -0.0033523422 0.0030541858 0.0005411096 -0.0066679446 0.0051201135 -0.0024622139 0.0027992697 0.0024630176 0.0069358572 0.006827049 0.005712062 -0.006474669 0.00094434526 -0.00075325463 0.00068525504 0.006971405 0.003726284 -0.0069722207 0.0076654833 -0.0006962456 0.00031132624 0.0038720025 -0.0048554298 -0.00031628367 0.0010748161 0.0055087926 0.0033444883 -0.0015148837 -0.0066151675 -0.003030437 0.0068586376 -0.007414952 0.0076928623 -0.0001201313 -0.0008831313 0.0075033093 0.00747859 0.0064620255 0.0070305383 -0.007800497 0.0058631236 -0.0073143877 -0.0060254643 -0.00689697 0.0016856128 0.0056110835 -0.0049258173 -0.0021205498 -0.0018418729 -0.0034982553 -0.0010250108 0.0037937546 0.002900511 -0.002531413 -0.002900431 -0.0018282495 -0.0025222674 0.003087921 0.0076112533 0.0061359834 -0.0059059868 -0.005038062 -0.007134323 -0.004632893 0.0028400756 -0.0047025494 0.0013244767 0.006942612 0.0026062224 0.0009303782 0.0069709215 0.005010416 -0.001124613 -0.00485244 -0.0008254219 0.0056842165 0.0058441656 -0.0031507723 0.0077660643 0.0018764706 0.004006328 -0.0044288794 0.0034211185 0.000200551 -0.0074918168 0.003959382 -0.007038583 -0.0050541908 0.002177217 0.0072521884 -0.0016561849 0.0054523004 0.0039594267 0.0031783078 -0.0048387963 0.0039646802 -0.006490537 -0.0033725956
3400 0.0042558163 -0.0063646883 0.0044762865 -0.0027285581 2.081506e-05 -0.0057413112 -0.0048774667 -0.0025867065 0.0067212293 0.004177138 -0.0075761173 -0.0051352335 0.0026794113 -0.006654026 0.005199006 0.00480836 -0.007268916 0.006758265 0.0061261076 -0.0014008628 0.0013920628 -0.0044495584 0.00485788 0.0060171923 0.0031611314 -0.0069230506 0.0038637873 -0.002391087 -0.0017243112 0.0047698123 0.0014416398 0.0036149388 -0.004904736 0.004092586 -0.0027649347 -0.00029969309 0.0048608016 0.003185154 0.005837355 -0.0030605095 0.0027720472 0.005710019 -0.0025675232 0.0044990154 -0.0073536634 0.006908281 0.0029323148 0.0041493243 0.0036315694 0.003567933 -0.002585305 -0.0048517957 -0.0017832294 0.0010823114 -0.0022983085 -0.0066285348 -0.004913236 0.0065168357 0.0072982376 0.0046569267 -0.0032057036 0.00054278784 -0.006700162 0.0052008005 0.00036548357 0.00576296 -0.0041977167 -0.0022243569 0.0022335704 0.0027029756 -0.005113364 -0.005754891 0.0015873797 -0.007039547 0.0045222947 0.00427299 -0.0029827692 -0.004407118 -0.006505158 -0.0014817426 0.005452417 -0.00016368087 -0.0062086014 0.0069457777 -0.0066809645 0.0043436633 0.005053008 0.0007623276 -0.0067910636 0.00482447 -0.006131149 -0.0039201314 0.0075193653 -0.006470423 -0.005959807 -0.003828561 0.0027056187 0.0014956407 -0.0043425914 -0.0025596842 0.0067059007 0.007630937 0.0077458713 0.00081679225 0.0031546876 0.0010670731 0.0013068225 0.003779986 0.0017219055 0.00023480039 -0.002460027 -0.0050974544 0.006241791 -0.0046655955 0.0021744939 -0.000722982 -0.0028506815 -0.0038604634 0.0025157966 -0.004576266 -0.005855308 -0.0020657051 0.0036635771 0.0047219517 -0.0011380259 0.005702043 -0.0059322426 -0.0036974791
2569 -0.0061413087 -0.004724304 0.005703765 -0.007250551 -0.006759341 -0.0076676086 0.0071896967 -0.0020820955 0.00077917706 -0.004787119 -0.001979908 5.66924e-05 -0.001953314 -0.005759066 -0.0048382357 0.0019806083 -0.0074174507 0.00089552253 -0.0015534032 0.0064673983 -0.00031078327 0.004854584 -0.005536589 -0.005912273 0.0043330155 0.00073418766 -0.0039768154 -0.0020779604 0.006852463 -0.007169869 -0.0028722752 0.00078318827 -0.00016881619 0.007432511 -0.001514324 -0.0055432264 -0.0059990147 -0.007734794 -0.0061122254 -0.004713172 -0.0046460917 -0.0010978002 -0.00042278972 -0.0036838213 0.0016725911 0.003020213 0.0070548346 -0.003636526 0.0040066587 0.0056671426 -0.0029350538 -0.005808345 -0.0026083598 -0.005384356 0.00507454 0.00733402 0.006463187 -0.0066673215 0.003943571 0.003984372 0.0043974705 -0.0065036295 1.3686717e-05 -0.005332186 -0.00696591 0.0019485848 0.0077579757 0.0050755683 -0.0055214176 0.0018255608 -0.0030496372 0.007754891 -0.0068763234 0.0075978916 -0.005091952 -0.0054737106 0.0012707217 -0.00052556116 -0.0066516567 -0.00047850795 -0.00027993694 -0.00489622 0.0044897264 0.0024800617 0.0065628383 0.005780046 -0.0051885815 0.0037392918 0.004448223 0.00451425 0.0040672775 -0.0037360108 0.003371887 0.0010296507 5.4575503e-05 -0.0050438754 0.0011899881 0.0041131508 -0.0071961507 0.0067243073 0.0023381272 -3.113132e-05 -0.00262798 0.00028127152 0.0047533344 0.0037286626 -0.0046500685 0.0061513158 -0.0004987288 -0.0063744737 0.0069287475 0.003961765 0.0028337138 0.0061793225 -0.0058814734 -0.004555355 -0.0015669242 -0.0032018377 -0.0012515709 -0.00045948848 -0.006550817 0.0014850739 0.0019988855 -0.0006573405 0.0038041063 0.0011446113 0.00467775 -0.0017470866
3401 0.0066596614 -0.0012225816 0.002404551 -0.0029585874 0.004788732 0.002404091 0.00042544398 0.006841247 -0.006123013 0.0075897053 0.00061039533 -0.0018393863 -0.0032245908 -0.0071127545 -0.0017349273 0.002100844 0.0051393127 0.00708618 -0.006834843 0.0070756916 -0.0069062673 0.002916229 0.00627149 -0.001959823 -0.006137128 -0.0065121865 0.00090094004 -0.00059518777 -0.007430774 0.002422098 0.0017620791 0.0034785075 0.003460141 0.002526314 -0.0076691685 0.0044799102 0.0033300435 -0.0060519157 -0.0016574059 0.00027672015 -0.0005010562 -0.0007552672 -0.0043289727 1.7903745e-05 0.0034535052 -0.0005318839 0.0006252369 0.0016356017 -0.0031052604 -0.0061467625 0.0071625737 -0.007646134 -0.0019352883 -0.0009892909 -0.0059928764 0.0013839239 0.0062058764 -0.0011846824 0.0063321423 0.00023013353 -0.0045095636 -0.0015486199 -0.00056713447 0.004886791 0.005563086 0.0048462553 -0.0046826033 -0.005452182 0.004759785 0.0019342778 0.0041739233 0.00036300998 0.006145727 -0.0069371667 0.007712581 -0.0064363442 -0.0013328232 0.0049078045 -0.0072119506 0.0033737123 -0.005450979 -0.005346562 0.0017998936 0.0013562674 -0.0021782853 0.0061497763 -0.0054820525 0.00036255736 0.0068216175 0.0015820954 -0.005353458 0.002765337 -0.003929734 0.00046063028 0.0022339309 0.005926653 0.0057672663 -0.0038234526 0.0074376212 -0.0042863423 0.005958016 -0.0062364284 -0.006110359 -0.000868652 -0.0063616633 -0.0027090842 -0.00040179212 -2.9597431e-06 -0.0077824593 -0.00508356 -0.0057950392 -0.0003028987 0.004053672 -6.0898252e-05 0.007781407 -0.003036472 0.006296212 0.004754806 0.006454693 8.317176e-05 -0.0003358554 0.0014782613 -0.007754381 0.007066259 -0.0018656692 0.0058899196 0.0015951088 0.0022652047
3397 -0.0009709392 -0.007729632 0.0010929769 0.002254567 -0.007660321 -0.0030480772 -0.0018346189 -0.003952902 0.0030931756 0.0016446682 0.0033874875 -0.005060615 -0.0046897475 0.0036865948 0.0052961353 0.0043179784 0.0037474846 -0.005658862 0.0063773654 -0.005438026 -0.0059907585 0.006645079 -0.001930424 -0.007335228 -0.0024092551 0.004658104 -0.0022604149 0.0038580485 7.9032965e-05 0.0031763725 0.0009257449 -0.0072843386 -0.0028515374 0.0069035683 0.0012032595 -0.004602057 0.0054799365 0.005825121 0.0056601427 1.15558505e-05 -0.0071454197 -0.0027242824 0.004012448 -0.0050807167 0.0076122424 -0.0076331766 -0.0063507045 -0.0041517094 0.0047015836 -0.0059959404 0.006748016 -0.0077084955 0.0027298424 0.0025750212 4.250463e-05 0.0074557774 0.003992643 0.00022523757 0.003764497 0.005006533 0.0023490246 0.007349806 -0.00104596 -0.0065508345 -0.0034969077 -0.0011651265 -0.00567823 -0.0012220563 0.0061989324 -0.0039254883 0.0039847707 0.0033994429 -0.00054605864 0.0008398872 0.0044725146 -0.0051886803 0.0030445019 0.006965354 -0.0027451478 -0.0059486944 -0.0071888287 -0.0070362026 0.0030239457 0.0039974125 0.005499392 -0.0011348473 0.00075661764 0.002384358 -0.007717413 -0.00735425 0.0035855751 -0.00656222 -0.0024825577 -0.0033673178 0.004620701 -0.0026919441 0.0077986056 0.00043457 -0.0040214667 -0.002841617 0.0009826813 -0.0041940706 0.0057767713 0.00704966 0.0033536786 -0.0057390975 -0.004645399 3.949646e-05 -0.000795831 -0.0043176888 0.0061998405 0.0048727915 -0.0032686172 0.001861209 0.0040088054 0.0018827459 0.0066944016 -0.0010087397 -0.0050992146 -0.00065171253 -0.00650212 0.0076903924 -0.006731852 -0.0011745673 -0.0022263015 0.0024604248 0.0038834866 -0.0064348225
1306 -0.0034439415 0.0003841156 0.0031245518 0.0039972113 -0.0010819221 -0.00048672967 -0.0061140163 0.0035518259 -0.0059761256 0.0025665723 -0.0026780814 -0.006095472 0.0053779846 -0.0003573168 -0.0074572405 -0.0073249787 0.00046181493 -0.006391518 0.0029205661 0.0027066711 0.0026196074 -0.0043770596 0.006237113 -0.007021252 0.00582569 -0.00049375463 -0.0011509359 0.0030970694 -0.001944148 -0.0034345249 -0.0018883254 -0.004834367 -0.0002750093 -0.0042062877 0.0035971422 -0.0074517354 -0.003399714 -0.007160321 -0.0075133825 -0.0005870033 -0.006315412 -0.004446907 0.0021686703 -0.0011253143 0.0024255374 0.006457147 -0.007523656 0.0047537237 -0.0062079364 0.0051051145 0.005834707 0.006703493 -0.0062121013 0.0026090145 -0.00612674 -0.00097336713 -0.004078334 -0.0066666286 0.0038547358 0.0034641614 -0.003170196 -0.006075328 0.002778463 -0.003072084 -0.006928901 -0.0034279907 -0.0016969005 0.006841462 -0.005044113 0.005728429 0.004783527 -0.0038344814 -0.0013741031 -0.0019569527 0.002439566 -0.00035393052 -0.0021590693 -0.007066909 0.0050268993 -0.0075120237 -0.00675816 0.0010796702 0.0023229942 3.7048012e-06 0.0002891412 0.002022869 0.0014082585 0.0059127444 -0.0026924945 -0.0056510856 -0.006159516 0.0061871987 0.0015205257 -0.0045373878 0.0049931193 0.0066043586 0.0062082857 -0.0053343596 -0.0040167496 -0.0015705768 -0.0051700557 0.0036943937 0.004425342 -0.004684313 0.005624419 -0.0059816837 0.004846018 -0.003613538 0.0015323879 -0.0025557317 0.002648173 0.0060300557 -0.0010894556 -0.0038946774 -0.0066887895 0.0028417595 0.0033054827 0.0052322065 -0.0033513773 -0.0076038977 0.00532931 -0.003534956 0.0034529464 0.006292604 -0.0030803233 0.0012766989 -0.002804027 -0.0051669898
3395 -0.0044408897 -0.00010671094 -0.005869746 -0.001559223 -0.0019436851 0.0052409684 0.0010654256 0.0045720283 0.002983844 -0.00274722 -0.003977713 0.007547885 0.005523747 -0.0070658056 0.004098268 0.0064008078 0.0071814843 -0.0062927026 -0.0015727924 0.0008480456 0.0022721682 -0.0012671547 -0.0036757234 0.0050534513 0.0054160766 -0.00030459184 -0.004564954 -0.0034154393 -0.004022558 0.0033252332 0.00040135905 -0.001843486 -0.0070975833 -0.0011691079 0.005024489 0.004941404 0.0032996424 -0.0022467952 0.0070715705 0.0004695123 0.0008865027 0.0048241103 -0.0051511647 0.0051048426 0.0076518096 0.0028693452 0.0026815934 0.0032785516 -0.0015206868 -0.006325216 0.0011563236 0.0007067239 -0.0053103883 0.0015307749 0.0042530484 -0.0056077437 0.0019624839 0.006067791 -0.0067353267 0.0027449736 -0.0066911 -0.006200826 0.0055398634 -0.0059104664 -0.0010691788 -0.006194284 -0.0061448384 -0.0055496916 0.00031715725 0.0014022524 -0.006176968 -0.0062883412 -0.002484478 -0.0014253156 -0.0048206747 -0.0033021672 0.0028180154 0.0023993477 0.0051520905 0.0033177212 -0.0006926935 0.0021618763 0.007070304 0.0014907625 0.0014216006 0.00087812543 -0.0072553875 0.0041811904 0.003940585 1.994893e-05 0.007197068 -0.0044672564 0.0025384035 -0.0061029578 -0.006984816 0.0015632529 0.0037069703 0.0047659343 -0.0067871753 0.003400837 0.0018738322 0.00324684 -0.00052697025 0.0043310225 0.005696592 -0.006552291 -0.0077595823 0.0054803966 -0.00074372813 -0.0073239123 -0.0031920979 0.0009306595 0.006583292 -0.0013206713 -0.0007981481 -0.0057536457 -0.005978603 0.0011425503 -0.00036988873 -0.0060158074 0.0006874418 -0.0070222467 -0.0019351821 0.003294738 0.0008726679 0.0061177267 0.0051448243 -0.00092896353
715 0.0038722316 0.0047884705 0.0068216976 0.007092598 0.0038501322 0.003602705 0.0056133037 -0.0012237448 -0.0044138264 0.0069281785 0.00094574597 -0.003949005 -0.0006785067 -0.004085019 0.0071229246 0.0026544733 0.0033449195 0.0050818184 0.0063860714 -0.003735085 -0.004956659 -0.002911278 -0.0029005408 -0.0073783537 -0.00047747977 -0.0063301036 0.007633292 -0.0026604775 -0.0049340446 -0.006331918 -0.002782804 -0.0074643996 0.00061209965 0.0042276615 -0.0022460036 0.0059899827 -0.0014644144 -0.0056791753 -0.002441098 -0.002453521 -0.00554376 -0.007564404 -0.0031771576 -0.0012410572 0.003909504 -0.0059461314 -0.0038861893 0.0010638516 -0.0013090065 0.0027716486 -0.0014644358 0.0033774786 0.006243529 -0.006182707 0.0029425137 0.004674956 -0.00045069586 0.005286442 -0.0042315666 -0.0035751155 -0.0061311256 0.00739918 -0.007349089 -0.00253883 -0.0003388198 -0.0037882393 0.0074000834 -0.0053386427 -0.0062648375 0.0072224494 -0.006483875 0.0075704195 -0.0032012742 0.004427527 -0.00032344367 -0.003122514 -0.0058632996 -0.0049012993 0.0053466186 0.0049389936 0.00012847036 0.004993541 0.0030117016 0.0029954193 0.00209203 -0.00759174 0.007235067 -0.0064098397 -0.002348869 0.0011141337 0.0040999064 -0.007195386 0.0013230937 0.0049675778 -0.0068419585 0.0074650627 -0.004076397 0.0074621662 -0.005098886 0.0051507205 0.0073145255 -0.0072089443 0.00022697542 -0.006039975 0.006350505 0.0074828044 -0.004728446 0.00065849535 -0.0017504478 -0.0060596336 0.00064023864 -0.007737521 0.002042165 -0.0060114535 0.0044452874 0.005915584 -0.0019955337 -0.00313533 -0.007507515 0.0038426416 0.0022742953 0.0068338485 0.0025783582 -0.0022671921 0.0027797297 0.006739944 0.0072131874 0.005972266
3392 -0.0066828895 -0.005912223 0.0056727147 -0.005815127 0.0025396952 0.0062692007 -0.0025054803 0.0052806586 -0.006370862 0.005069101 0.004368676 0.0026071155 -0.0063476283 0.0071568433 0.0064284196 -0.0012220507 0.003208924 0.0049800137 -0.00135916 0.0042871106 -0.003151739 -0.0009961063 -0.00094356947 -0.0032512546 -0.0005532922 -0.0060172332 0.0028463406 0.0070765642 0.0037357453 0.004987295 -0.0037000468 0.003798468 -0.0052209143 -0.0038831932 0.007711646 0.005001709 -0.0038969042 -0.004746354 0.0056465548 0.0021139449 0.0051462725 -0.005279177 -0.00075873174 -0.0007389551 -0.00017166603 0.0017354535 -0.005274214 0.0034242775 -0.0021457328 0.006522375 -0.0008059181 0.0071536545 -0.0006557228 0.004071027 -0.0059335576 -0.007109885 -0.0002674507 -0.0017648526 0.0077882037 0.0035368204 -0.0043504145 0.0057539865 0.00046119187 -0.0074628843 0.004466554 -0.0015704259 -0.0073591247 0.006801352 0.005662797 0.0066815186 0.0002835747 0.006002266 0.004051742 -0.0054198066 0.0072544003 -0.0027809814 -0.0076120347 0.00668702 -0.004146699 0.006560277 -0.006135436 0.0072453227 -0.004621028 0.0031240694 0.0076438207 0.0032829335 -0.0016617524 -0.0038712863 -0.007594293 0.0032861661 0.0058092913 -0.0037001735 0.0046257554 0.0053442586 -0.007044471 0.0016391044 -0.0053434204 -0.0033827238 0.0006694086 -0.0054913806 -0.0032334048 -0.0058692293 -0.005490414 -0.0054204213 0.0077455705 0.0065022763 -0.0001441054 -0.0020506615 0.004881733 0.0010462422 -0.007026475 -0.005515334 0.00080314465 0.006198614 0.0024988055 0.0076875323 0.005118818 0.00023045298 0.006759354 0.007031071 0.006296213 0.0073455255 -0.0073301736 0.0027446114 -0.0061038416 -0.00557918 -0.006583011 0.0025019525
3399 -8.213334e-06 -0.0049620355 0.0043326076 0.0061751716 0.0033572167 0.006119401 -0.0033421442 -0.0049914615 0.0031087445 -0.0022855764 -0.005605628 0.0028675804 -0.0025956482 -0.0040611727 0.0020538839 0.0053545777 0.005001073 0.00011643674 0.006757858 0.002299348 0.005131402 -0.00070278905 0.0016476763 0.0048154304 -0.00765129 0.0045536896 0.0010054791 0.0047537163 -0.0011293739 -0.0021067932 -0.0043603117 -0.002223744 -0.0020085769 -0.0040211556 0.00075830426 0.0062425127 0.004014359 -0.005976625 -0.0057962034 -0.0022605788 0.0030524721 -0.0072797406 0.004782606 0.0024348842 -0.0022044396 0.007182883 0.0062977206 0.00055841263 0.0037720017 -0.007267867 -0.006865835 -0.002301965 0.00724712 0.0025268337 0.004384836 -0.0052895704 0.003316136 0.00030800235 -0.00070993043 -0.0025366284 0.003878883 -0.0071094334 0.0039978456 0.0044256235 -0.0019003013 -0.003281637 -0.005775124 -0.0049797865 -0.0039899303 0.002459813 -0.0037467582 -0.0009364933 -0.0069711907 -0.0027421126 -0.00061173923 -0.0062059257 0.0025401087 0.0076202294 0.003429872 0.0014591739 -0.0038029198 -0.00088598765 0.0017531188 0.0013573235 0.0068848925 -0.00072945654 0.0054641897 0.004519809 0.0023755655 0.0057207253 -0.0038624713 -0.0030917926 0.0054494618 0.006728567 0.0024647275 -0.003199501 0.00596896 0.0021269452 -0.00017875433 0.0069245463 0.0033645453 0.0030870652 -7.1581453e-06 -0.006972187 -0.0024375431 0.0019023577 -0.004381095 0.0055639856 0.0058172066 -0.0069909124 -0.0042049047 -0.0046755886 -0.00051356666 -0.0014046337 -0.0015962468 -0.0017258171 0.0027887924 0.007511529 -0.0035865027 -0.0064712586 0.002923104 -0.0050469767 0.005223357 0.0020814044 -0.0061425343 -0.0060589826 -0.007226321 0.0018375637
2506 0.0021397537 0.0020470219 0.00013612397 0.0008153003 0.0024007726 -0.001219797 -0.006275717 -0.0004864484 0.0028957613 -0.0020264834 -0.001665445 -0.0017580464 0.005678801 -0.002375329 0.0073777903 -0.0030325167 -0.007790475 -0.005117907 -0.0034162635 0.0009724917 0.0040026736 0.0016635507 0.007065545 0.00070368964 0.0044014687 0.0001258459 -0.0016539907 0.0048579145 0.001577585 0.0064528864 -0.00648244 -0.0068375925 -0.00042261835 -0.0014787726 -0.0018341728 -0.0004650904 -0.0039614635 -0.0062657893 0.006448769 -0.0026102774 -0.0022213086 -0.0012853136 -0.00096153095 -0.00717903 -0.0014056768 -0.0010531461 0.006756479 -0.0062190965 -0.0037107049 -0.0014734808 0.0022542877 -0.0047031883 -0.0043339496 -0.0062227715 0.0043219365 -0.00681023 -0.0025376445 0.00022955425 0.0011320701 -0.0077665057 0.006765552 -0.0016057594 0.00027520861 -0.006869684 -0.0063811988 0.0029457817 0.003134828 0.0023321677 0.0045670103 -0.005414188 -0.00097323675 -0.0021284437 -0.0010988722 0.0034980318 0.0010715434 -0.0058120014 0.002530099 0.004887861 -0.0047677085 0.002523207 -0.0033688322 0.0068959063 0.0032267245 0.0015913947 -0.0007963991 -0.0071157776 0.0067614773 -0.0014199307 0.0057616364 0.0029470585 -0.006452156 -0.00048178528 0.0021450985 -0.0020039286 0.0076034237 -0.0038969927 -0.0055973763 0.002966999 -0.0027888864 -0.005381436 0.0015897742 0.0041178456 -0.0042949915 -0.0034222277 -0.005606672 0.0012104996 -0.0037160097 0.0065902406 0.00056420267 0.001455701 -0.0026072683 0.005764991 -0.0005159192 -0.006416005 -0.005736029 0.00016112626 0.0060439566 0.0024118386 -0.004157993 -0.005275894 -0.0076988153 0.0030648345 -0.0074361293 0.002487816 0.0012989696 -0.00064199045 -0.0077758757 0.004597055
2596 -6.988831e-05 -0.0077625075 -0.0058855936 0.006694383 0.0014770236 -0.0063911136 -0.0006395597 0.004222797 -0.0072804987 -0.0053710686 -0.00079977233 -0.00762837 0.00037524384 0.001520142 0.006672249 0.0007687267 0.0010177735 0.0038120858 -0.003352549 0.005649071 0.00012533087 -0.00053038634 -0.007576326 0.0003955923 0.0053039873 0.0013757981 -0.006320808 -0.0026008245 -0.0047169514 0.004703166 -0.0050527956 0.004106952 -0.004107631 -0.0053316476 -0.005926447 0.002977511 -0.0068756044 -0.0044611115 -0.0055162003 -0.003372686 -0.0031520445 0.0011605779 0.0050664684 -0.00093499944 -0.004286851 0.0012171092 0.0044032754 -0.004118778 -0.004171565 0.0040389784 0.004895199 -0.006070407 0.0064162426 -0.007691862 -0.005794663 -0.004593537 0.0014176955 4.3767504e-05 0.0027088588 0.0054795137 0.00374417 -0.002502462 -0.0050269123 -0.00644539 -0.0003758669 0.0076024337 -0.0059955046 0.0028508268 0.003425871 -0.003389447 -0.0054420168 -0.0042525623 -0.003935868 -0.0054682083 0.0046372777 -0.006069434 -0.0022922596 0.003421422 0.00014053378 -0.0060045617 -0.003662345 0.0028063217 0.001986106 -0.0015292494 -0.0005654115 0.0019918457 0.001112055 -0.0020655561 0.004172909 -0.0059837913 0.004974217 -0.007806613 -0.0017608935 0.0052207755 -0.002814914 0.0051049804 0.004243888 -0.005778664 -0.0001896862 -0.0035118964 -0.006297468 -0.0006967494 0.0049914345 0.006825461 -0.0039393688 -0.0020765373 -0.0047170147 0.000907653 0.0020814622 -0.007685775 0.0018841289 -0.006885563 0.0003114678 0.003718798 -0.004106316 0.00020149909 -0.0017050114 -0.006786925 -0.0018827571 0.0034818817 -0.006699863 -0.004638494 -0.00042667706 0.00627923 0.0010985453 0.0076256357 -0.0059924973 0.0070249196
2578 -0.0036944458 -0.00496532 -0.0061222166 0.0014418708 -0.002152769 0.0059003616 -0.00040168874 0.0019605262 0.004656558 -0.006756421 -0.0016083494 -0.0037353672 -0.0067732353 0.0026697675 0.0018857913 -0.0018767118 -0.0014958233 -0.0052585695 -0.0025473405 0.0010238942 0.006045582 0.0055211987 -0.002807619 0.0028190184 -0.0020151446 -0.0036874088 -0.0028319545 -0.004802063 0.0027354378 -0.0060859183 -0.0058657564 -0.0035184845 0.005779893 0.0014275396 0.0042648166 0.0064190086 -0.00487087 -0.003614583 0.006000288 0.0038598133 0.003641991 0.0070253583 0.0068844063 -0.0020907223 0.000812036 0.004282633 0.0069465116 0.007693123 -0.006457071 -0.0040042624 0.003899145 0.000746835 0.00012748968 0.0058627333 0.0050025703 -0.0056539867 -0.0020264713 -0.0066279173 0.0055031423 0.0021613538 -0.0017411029 0.0014685802 0.0059874626 0.006352785 0.0048236037 0.002472899 0.0012102844 0.006358929 0.0010283841 0.00034566317 -0.007463391 0.0019719498 -0.0066081313 0.005051515 -0.004522656 -0.0013669906 0.0007622745 -0.0014695693 -0.0071275327 0.0031122547 -0.0051336493 -0.0068683326 0.0030559944 -0.000593544 0.005086392 -0.0054797335 0.0006093774 -0.00053622667 0.0044868467 -0.007602078 0.0046330895 -0.007015338 -0.00608101 0.0005685678 -0.0020810124 -0.0030407468 -0.0041431105 0.0032115476 -0.0072849784 0.0009263512 0.0032874094 -0.00021941774 -0.0003885245 0.005599533 -0.007475245 -0.007041338 0.0034696646 0.006809842 -0.006090138 -0.006491772 -0.00050167553 -0.007059303 0.0016567018 0.0072151152 -0.004777902 -0.0052785557 0.006962898 -0.00059359986 -0.0029250355 -0.0021179235 -0.0068369033 -0.0036152722 -0.0032444773 0.00019424874 0.0005394947 0.0059573436 0.0053336164 -0.0011825664
159 -0.007794779 0.002026895 -0.004775366 0.0071155243 0.0029724399 -0.0007858714 0.0051602954 -0.0027289344 -0.0028797667 -0.00025797356 0.006573554 0.0046382686 0.0012279721 0.0029453104 -0.0023302576 0.007233985 -0.0055716345 -0.0025294283 -0.004140717 0.006815416 -0.0024414482 -0.0018645925 0.00558454 -0.0075826608 -0.0022662869 0.0022561746 -0.004893074 0.0068447283 0.0009121215 -0.004085618 0.0038514668 0.006235569 0.0007251976 0.0053261826 -0.0053330194 -0.0028272476 0.0077632703 0.0044344114 0.0012465548 -0.0027294885 0.0034504198 0.001978496 0.0065298593 -1.2349337e-06 0.0067163445 -0.0045773666 -0.005942148 -0.0010957709 0.0023238007 -0.0015493091 0.0046001384 -0.006572093 -0.0070360126 0.0059212465 0.0049497196 -0.0031918902 -0.0031408537 -0.0027773017 -4.048273e-05 0.007089881 0.0007436611 -0.0016008159 -0.0026686573 -0.0016303677 -0.007183873 0.005334001 -0.007056903 -0.0024145162 -0.0055621304 0.0070790853 0.004524878 -0.00037412345 0.0030614901 -0.0019003805 0.007663301 -0.002833399 0.0037964853 -0.0029645711 0.007461708 0.0074197855 0.004868333 -0.00019383617 -0.0013173791 -0.0067628864 0.007292701 -0.0065955566 -0.005122029 0.0043601636 -0.0017833998 0.0062308256 -0.0061462577 0.0071847998 0.0017587272 -0.006684472 0.0030815527 -0.0038715824 0.004987795 0.0051458953 -0.006844932 0.005049438 0.0041100336 0.0050649196 -0.005511827 -0.005123174 -0.0069233133 0.00411178 -0.0031397194 0.0037499247 0.0037462814 0.0063150087 0.001754472 -0.0008465359 0.0011426443 0.0023277812 -0.0068518175 -0.004666445 -0.00074131973 0.0038183685 -0.00012618583 -0.0075509436 -0.0004917737 0.0055832313 0.0049483757 0.0027095117 -0.0035928097 -0.0029068505 -0.0016237088 -0.0046895472
740 -0.006716582 -0.00043908134 0.0014082333 0.0037733512 0.0028045923 0.006683496 -0.005286607 0.0072476305 -0.0026105335 0.00063361786 -0.0033294586 -0.0031615784 -0.0011620484 -0.005866833 0.0070065362 0.0035621393 -0.0017661089 0.0014959723 0.0061048195 -0.0043867845 0.0029803533 0.0005511092 0.0022644158 -0.0016696397 -0.007714184 0.0045956476 -0.001111039 -0.006498143 0.00055693276 -0.0048215613 0.0059980797 -0.0049976604 -0.0012868214 -0.0003087148 -0.0033512386 -0.0026736576 0.0057382593 0.0014466392 -0.0073264968 -0.0002217479 -0.007446561 -0.002469535 0.0038741482 0.0028907051 -0.0044846125 0.0011393661 0.004538973 -0.005857235 -0.002640957 -0.0019261045 -0.006949283 0.0016423976 0.0050845426 0.0019091107 0.0018561156 -0.00063131936 -0.00063197874 -0.0048980657 -0.00038548931 0.0051506665 0.0023208074 0.000426203 0.00611768 0.0021866737 -0.0057985634 0.0057088593 0.0074630724 -0.0070950026 0.0056455936 -0.0059320554 -0.00028041378 0.0036020847 -0.004486941 -0.0062147845 -0.0056933304 -0.007729726 -0.005208874 0.0074635632 0.0022854637 -0.007081328 0.006645212 0.005635863 0.0061412286 0.007507831 -0.0067742616 -0.0017153267 0.0016381107 0.0018882845 0.0037763389 -0.006037675 0.0037618922 0.0077618277 -0.0070029795 0.006167151 0.0025065783 -0.0032490268 -0.0012010057 -0.006650595 -0.0058468115 0.004310523 -0.0024457974 0.007804932 -0.006265388 -0.005506362 0.004799964 0.006157142 0.0028799213 0.005654799 0.0050690006 -0.004513353 0.006799574 -0.004950039 -0.0022488022 -0.0046743387 0.004757303 -0.0034262352 0.0024029454 -0.0012376988 -0.0009346297 -0.004568588 -0.004506015 -0.0027988786 0.00024791062 0.001147612 -0.0025803084 0.0015153969 -0.004429321 0.007801789
2623 -0.0006407546 -0.0054288832 -0.0014517596 0.006200267 -0.0008597672 -0.0040264595 -0.0062860036 -0.004585701 -0.002497225 0.006031437 -0.005643542 0.0011250768 -5.958136e-05 0.0030771364 -0.006206615 0.0062113116 -0.0021788497 0.004140312 -0.0074270563 0.003975723 -0.006444514 -0.0025404515 -0.00092756096 -0.0028454736 -0.0005721636 1.8337741e-05 0.0035231896 -0.0017510112 -0.0031316262 -0.0048226416 0.0065033818 0.0036037974 0.0071106916 0.004284013 -0.0036024824 0.0064677466 -0.005436399 0.0023784032 -0.0026215967 0.00020921044 0.0029375702 -0.0022045346 -0.0034533814 -0.0015228838 0.00040654 0.005043016 -0.0045743873 0.0036457246 -0.0028977422 -0.0062078536 -0.0043787844 0.0014499128 0.0068659764 0.006151338 0.007169498 0.0053827837 -0.0023173746 -0.0018914752 0.0068872897 0.0050634043 0.0046971776 0.005374945 0.0012667989 0.0018707756 -0.006411963 0.0058880392 0.007378335 -0.0055325916 0.00090899505 0.0068290215 0.0028554946 0.0054301443 0.005960622 -0.0014987914 0.006924548 0.004677035 -0.0014821393 4.8019923e-05 0.0075841686 0.004547909 -0.00522328 -0.0027269889 -0.0027257018 0.0024384558 0.0008633081 -0.006721111 0.0016961098 0.007514666 0.001840475 0.0033470644 0.0015330082 0.006343374 0.006935671 0.0024688393 -0.001905283 0.0028164275 -0.006027109 0.006262076 -0.0031313533 0.0077512786 -0.00749108 -0.001999882 0.006942505 -0.0031851977 -0.001530244 0.0039334903 0.00725405 -0.00028547551 -0.0053116763 0.00780474 -0.007442062 0.0009731371 0.0043483432 -0.0061185807 -0.0043996368 -0.0071256105 -5.6060962e-05 0.003908093 -0.0064262105 -0.0024073478 0.006554731 -0.0034854757 0.0024806792 0.002745892 -0.00279422 -0.004041902 0.006503856 -0.0019678297
690 0.0070007537 -0.0018895846 0.0023830105 0.0043716235 0.00044034328 0.0034335954 -0.004658905 0.006573098 -0.0012847455 -0.0034494102 0.003992345 0.007751677 -0.004422672 0.0006562155 0.0033882307 -0.0021483954 0.0004999321 0.0068924734 0.0060326643 -0.0050443867 -0.002505267 0.00720168 -0.00024940912 -0.0074699037 -0.0005603144 -0.005318512 0.0007234607 0.00064099394 -0.00343562 -0.0035849372 0.006872096 0.0035812184 0.0020125592 0.001440974 0.0064291926 -0.0039015124 0.004768689 -0.0007703928 -0.0059819417 -0.0075743916 -0.0013095113 0.006341628 0.0017240066 -0.00701442 0.0009559095 -0.0028316462 -0.0031705108 0.00635146 0.0045488924 0.0002814997 0.0019144053 0.000703671 -0.007752099 0.0023363726 0.0056117717 0.0031163432 0.0019310378 -0.0027716262 0.0018283604 -0.0059629846 0.003291604 0.0018720385 -0.00031976122 -0.00046728272 0.0020573502 0.0017368011 0.0011555357 0.007133577 0.0027594045 0.0010882504 -0.0022920128 -0.0047415514 -0.007275764 -0.0025469726 0.0033979565 0.005918286 0.0004965756 -0.0037347088 0.0028120438 -0.0030469373 -0.00059328135 0.0069246413 0.00638102 -0.00032690074 -0.004617678 0.0028853053 0.007665772 0.0067729196 -0.0014906535 0.0055844327 0.0072428063 -0.0074675763 0.0069418354 1.7311424e-05 -0.0040590307 0.0028747814 0.007003581 -0.0056575285 0.0053679813 -0.00502262 -0.0060821585 0.004301006 -0.003571936 0.0037207752 0.0057568345 0.0075410213 0.0044618985 -0.006926175 0.0025336929 -0.0070235683 -0.00028771162 0.00764212 -0.003995302 0.003201481 -0.0044786073 -0.006286908 0.0062619327 0.002535264 0.005763066 0.0022914838 0.0009093443 0.0029082345 -0.006579919 0.0051498143 -0.0035042753 0.003602338 -0.004267825 0.00081374217
2587 0.0031398311 -0.0019377973 -0.005883216 -0.004715952 -0.0077657793 0.007565721 -0.0034300769 -0.00082449894 -0.0070485296 -0.003573954 -0.0038185716 0.0023573479 0.0044184374 0.0027340576 0.007700625 0.0014803456 0.007715608 0.0059024394 0.002158842 0.0016749874 -0.0058702193 -0.001845465 0.004406469 -0.0063576335 0.0017665802 -0.0059267636 0.007538016 -9.710621e-05 0.0007147221 -0.0037329374 0.004779931 -0.0055675767 -0.005789345 0.005170514 -0.0026346957 -0.00071458146 0.0041867876 0.0035702605 0.0048500877 0.005490401 0.004387811 -0.006967836 0.0040191617 0.007129157 -0.0031299694 0.0008450011 -0.0025618821 -0.0026585488 0.006791638 -0.00021861494 0.0026620803 -0.004322538 0.004510913 -0.0026210155 -0.003881896 0.0017123977 0.007594947 -0.0047899727 0.00279212 -0.00077562593 -0.00561798 -0.0033832518 -0.0064213453 0.004367143 -0.002150544 -0.0040620025 0.00077970047 0.0035851095 0.0074203974 -0.0076056346 -0.00021543633 -0.00096068904 -0.0021094326 -0.00041408185 0.0063515073 -0.0014661103 0.0072924485 0.00029535405 -0.0008317428 0.0053942194 0.005423935 0.00035852753 -0.0002366351 0.0049554035 -0.0030034073 0.0035885442 -6.642286e-05 -0.0047484683 0.0050342064 -0.003150995 0.0017317543 -0.005348352 0.0020990232 0.004356359 0.003993392 -0.006307712 -0.0046154186 0.0055693174 0.0024340646 0.0008584503 -0.0048339497 -0.0010806732 -0.007206737 0.0009822873 -0.0035692938 0.00059002545 0.003504199 0.0018684315 -0.0055617066 0.00066461414 -0.0052499445 -0.003030872 0.0014840504 0.006228365 -0.0050870245 0.0018252367 0.0063626403 0.007741264 0.0048176544 -0.0057723997 0.003016645 0.006896713 0.003240414 0.0019654185 -0.0012422791 0.0027955761 0.0032448405 0.0068939673
97 -0.002977564 -0.0068365037 0.0050803935 -0.0048589157 -0.00047216844 0.0011042645 -0.0009288527 -0.0031583402 0.00067291595 -0.0075556273 0.0010908898 -0.0032617375 -0.004526804 0.0029784758 0.0011358606 0.0028511677 0.00070134643 -0.0074320734 0.007797663 -0.0027597314 -0.0017132172 0.0055795247 6.295461e-05 0.002386678 0.0017640786 0.0018621944 0.0052830307 0.007402707 -0.0004368713 -0.0026769266 0.0035599815 -0.0065119006 0.0066161975 0.0018754303 0.004687029 0.002189586 -0.0010378845 0.0007514199 -0.003746558 0.0071000243 0.0039313473 0.0028201016 -0.003913543 -0.0067530945 0.006199306 0.0023068693 -0.0033195363 -0.0067736376 -0.0030966308 0.001100502 -0.00717951 4.1654333e-05 0.0021878257 -0.0077673867 -0.0001154067 -0.0047419136 -0.0028184624 -0.001272751 -0.007794383 -0.0028223665 -0.005486833 -0.0057355985 0.0012438074 0.0018255282 0.0072560133 0.0069256043 -0.00501207 -0.0072014956 0.006164522 0.004228782 0.00541462 -0.0022967868 -0.0040852847 -0.0035687983 -0.0065109273 0.004590825 -0.0026997905 0.00674518 -0.004440832 0.007525038 -0.0035172626 0.0067679444 -0.004226099 -0.005866022 0.005985706 -0.007636033 -0.0068605915 0.003868129 -0.007618907 0.0041258885 0.0028536702 -0.0054843584 0.002459106 0.0011359602 0.0067516947 0.0022514546 -0.004002031 -0.00183676 0.005351615 -0.0051706666 0.007261658 -0.0025015632 -0.0036318647 -0.003412244 0.002408553 -0.007692514 0.0025170986 -0.003504497 0.0075530373 -0.0039275642 -0.0062602935 0.002744346 0.007005183 0.0021464452 -0.0017719921 0.0027441373 -0.0069695357 -0.0032346677 -0.0034274282 0.0014777146 -0.0049282014 -0.0059306407 -0.0051021976 0.004133324 0.0021469155 0.006874106 0.0018132003 0.0041419677
