17 128
9 -0.00041892752 0.000184712 0.003986992 0.0070384946 -0.0072679296 -0.005560007 0.005045994 0.007010147 -0.003918303 -0.0029401341 0.005766019 -0.0011980245 -0.003544229 0.005120353 -0.0037970003 -0.0014187638 0.002247328 0.00077490136 -0.006472824 -0.007381889 0.0057123173 0.003961142 0.005279448 0.0005959887 0.004961633 -0.0026604421 -0.00073937606 0.004506698 -0.0058762794 -0.003075081 -0.0058684237 -0.0007265955 0.0074516553 -0.005718099 -0.0018232567 -0.0015138602 0.0063104974 -0.0046335123 3.5283156e-05 -0.0037138546 -0.007502774 0.003911948 -0.0068434263 -0.0034311134 -2.7421862e-05 -0.00023139175 -0.005985344 0.007511518 0.0038922327 0.007213393 -0.006373373 0.0035123425 -0.0032320907 0.0006441688 0.0066395467 -0.0034860754 0.0035292972 -0.005302313 -0.0027722567 0.0073425844 -0.0012325412 0.00025107153 -0.003234867 -0.0060021 -0.0011781314 0.0019295271 -0.00069377106 0.0043231733 -0.002142951 0.0017656758 0.0042623393 0.006520276 -0.0011357348 -0.0071938615 0.003414494 0.000446707 0.0058139907 -0.00063537713 -0.0020612609 -0.006838288 -0.0006691851 0.0022082524 0.0042198664 0.005509888 -0.0044555636 0.0014522029 0.0047569247 -0.0037484774 -0.0024275472 0.005310648 0.0012745904 0.00014837272 0.002713779 0.00017013866 0.0075147077 0.0039535966 -0.006966711 -0.005501219 0.0007042624 0.004994167 -0.006734131 0.002863858 0.0040545966 0.0044858893 0.00583353 -0.0048184963 0.0008637607 0.0047244392 -0.0022187894 -0.0048230644 -0.00032048672 -0.006538241 -0.00437501 0.005550421 0.0026191715 0.0056450544 0.0053126933 0.005883392 -0.0029602768 -0.0004389109 0.0018346692 -0.003530494 0.0065536965 -0.0077016903 0.0052848756 0.0022768881 -0.0038537746 0.003436084
13 -0.0013590427 0.005243269 0.007785039 -0.0034081591 -0.00046823267 -0.004449717 0.003008455 0.0021770522 0.0053836536 0.004766481 0.0074519506 0.007244857 0.006170366 -0.00546055 -0.0071530193 -0.0002779318 -0.0024217507 0.006167435 0.004639511 -0.0012075491 0.0011804402 0.0013984693 0.0061074775 -0.0074298335 -0.00016057119 0.0027103098 -0.00073357206 0.0065482594 0.0070396746 0.0051066456 -0.00055595394 0.0060237534 -0.006667449 0.002505552 -0.0036234353 -0.003975746 0.0028043892 0.0041955775 0.006069933 -0.004505083 0.005807313 0.005176169 -0.0028982814 -0.0068325326 0.004248021 0.0050857468 -0.0006152736 -0.005242075 -0.005535879 -0.0019508284 0.004018167 -0.0028634667 -0.0073203593 0.0029896405 0.0038159993 -0.0050223153 0.000944186 -0.0016209977 1.9065104e-05 -0.007721491 0.0021031285 -0.0037110206 0.0008497238 -0.0012314254 0.0017161509 -0.006157481 -0.0021227999 0.002080624 0.0041770954 -0.0018683709 -0.007429761 0.0035202177 7.3878095e-05 0.0024041561 -0.005322379 -0.0010745823 0.005991079 0.0057393825 -0.0028697634 0.0020646108 -0.0064977575 0.004848036 -0.0036229081 -0.0024719583 0.0072744973 0.00068233255 0.0058521116 -0.0047453614 0.004031646 0.0077522052 -0.006607337 -0.0040122587 -0.005519404 -0.0037989467 -0.002952003 -0.0066689057 0.006215317 -0.0037843268 0.006580948 0.004111383 -0.0051172078 0.0030920869 0.0042735543 -0.0058019813 -0.0057857186 -0.001933774 -0.006738848 -0.0012356034 -0.0003151819 0.0025778785 0.0011264691 -0.0006886106 -0.004370358 0.0013518482 -0.0007010717 0.005307571 0.0031043673 0.0035386495 0.0011205515 -0.0021092622 -0.0034115724 -0.00080630835 0.0011226777 -0.0020671943 -0.0055263927 -0.006097896 -0.0071263956 -0.004636851
12 -0.0014433004 -0.0033780243 -0.0050473986 -0.002904158 0.0033509051 -0.0029211277 0.0065454496 0.0011984324 -0.005658062 0.0073701553 0.0059618847 0.0042916266 -0.0053506605 0.004548968 0.003132104 0.0040510697 0.003324923 0.0015154332 -0.0024766894 0.0065264413 0.0075095156 0.002962971 -0.0022164024 5.5683777e-06 0.0009522019 -0.006608066 -0.006424957 -0.000180481 0.0009666309 -0.0044870162 -0.0036916202 -0.0057391208 0.006506731 9.4763935e-05 -0.003522968 0.004454457 0.007171887 -0.003203025 0.0062224073 0.004199558 0.004593065 0.00040046126 0.0064164717 -0.0054836255 -0.0064395918 0.0072651207 -0.0001544226 -0.0015369346 0.0035965862 -0.0031994656 0.002143058 0.005421849 0.004738614 -0.005867808 0.0073299613 0.0036498504 0.0030985316 -0.0048777387 0.006609359 -0.0016798163 0.006894678 -0.0041890647 -0.0063511087 0.0053316867 0.0013056193 -0.0017175851 0.007432501 0.0074170744 -0.0076359743 0.0019572098 0.004809916 0.0030253567 0.0015803026 0.00033632945 0.00052627455 -0.002984872 -0.0055783205 -0.0016319314 0.003065545 0.0068895966 0.007233711 -0.0046687005 -0.0073458366 0.0076284194 0.0026795194 0.004036029 0.004908082 -0.0021908302 0.005720862 0.0022111498 0.0022429721 -0.001859664 -0.002443945 -0.0018516732 0.003340966 5.9420243e-05 -0.007487718 -0.0075512063 -0.0048032766 -0.000100445 0.0015604813 0.007368725 0.004362774 -0.0033521065 0.00021743495 0.0038784053 0.0060143042 -0.0008939244 0.0033776723 -0.004542484 -0.00062827393 0.0063281646 -0.0018438008 -0.0075495746 0.004515047 -0.0030701738 -0.0009553693 0.0077972794 -0.0017627738 -0.0037164567 -0.0041635837 0.0054538203 -0.0044600563 0.0016512992 -0.0041059842 0.004781808 0.003404146 0.0020362148
11 -0.0011649085 -0.002145362 0.0070257317 0.004074824 -0.0016894685 -0.00739868 -0.005801603 -0.000831048 -0.00062105246 -0.0020022728 0.0075646257 -0.00035821926 0.004588876 -0.0058184275 -0.00195787 -0.004335831 -0.0055773556 0.0009695552 -0.0056068096 -0.0017536078 0.002905706 0.004557128 0.0009360807 0.001642759 -0.003211243 0.0056447918 -0.0049273763 0.0036306372 -0.006421854 0.0015909905 -0.003888322 -0.0033185063 -0.002428894 0.004418132 0.0045300005 -0.0038864445 0.0006041648 -0.0066373264 0.006101411 0.007232259 -0.0021424433 0.0006251745 0.0005833218 0.0042795977 -0.006723499 0.00045660604 0.005366736 0.0017434331 0.0008786535 -0.007282934 0.006626849 -0.0048938496 -0.002337792 0.0027295211 -0.0006036153 0.0011025714 0.001392181 -0.0053350776 -0.007597509 0.0070629567 0.00484223 -0.0054007247 0.0026589707 0.00016098749 0.003713864 -0.0055624554 0.003146058 0.0033964328 0.007779195 -0.0034951093 -0.0010853624 -0.0057166573 -0.0075764293 -0.007093951 -0.0007990273 -0.0050806953 0.0037888503 -0.0048156455 0.0019681137 0.0005776882 -0.0026501203 -0.00076501817 0.0077961916 0.007145224 -0.0034858044 0.0070961146 -0.0044076275 0.004633533 -0.0024197018 0.002681056 0.0023572082 0.005390985 -0.0018545967 0.006855497 0.005929241 -0.0074590985 -0.0062564136 -0.0059671067 0.0022837948 -0.0021833768 -0.005413688 -0.006350206 0.0064915465 0.0015550693 -0.0072875135 -0.0037443098 0.002450577 -0.0036821924 0.0041256584 -0.003307376 0.002063903 -0.0062856935 0.0048514735 0.003764757 0.0006149942 0.0023542559 -0.0068183457 0.0016641887 -0.0006824564 -0.007280538 -0.007365736 -0.0011021234 0.0034628194 0.0028938055 -0.005077104 -0.005369584 -0.0039057909 -0.0017865971
15 -0.005664287 -0.007502592 -0.0021434603 -0.006533469 -0.0047178715 -0.0044304132 -0.0018313574 -0.0013335915 -0.006997655 -0.0005743746 0.0063691456 0.006008148 -0.005629778 -0.002864712 0.0024363687 -0.007477127 0.0011534682 0.0050972393 0.00448939 -0.006846142 -0.0035290187 -0.006359501 3.5903417e-05 0.0072372137 0.004666645 0.0039588343 0.003953955 -0.002533529 0.007462643 -0.0057472065 -0.00567999 -0.0017698351 -0.0006082505 -0.0025125807 -0.00046295766 0.005850643 -0.0005449364 -0.0012694849 0.002144062 -0.0065305475 0.006137347 0.006668831 -0.007487568 0.0019111456 0.0077382587 -0.005988909 -0.0054429052 -0.006044154 0.006559315 -0.0005322937 0.0071440693 -0.0063736103 0.002924285 0.002058627 0.0005802447 0.0018184967 -0.0058352295 -0.0073112296 0.001839513 0.0048034806 0.006238819 0.0044811675 -0.00060729403 0.006489191 -0.0072939955 0.002661041 0.00020840112 0.003013472 0.005770143 -0.0052540367 0.0043628756 -0.007439238 -0.0006284835 -0.006788076 -0.0039833384 0.007257208 -0.001451767 0.0022768956 0.0070869373 0.006982916 -0.0064128395 -0.0023533702 0.0077239107 0.0039878367 -0.001240693 -0.0067906417 0.0023136847 -0.005215545 0.0063533373 -0.0034822924 -0.0008346541 0.0007862225 -0.00014930777 0.0008970136 0.0047764536 -1.583714e-05 -0.0025359103 -0.0011802567 0.004607265 0.0011828924 -0.0005658297 0.007291599 -0.003844753 -0.00065500755 0.00716829 0.00527299 0.0011741063 -0.0069395006 0.0008974578 -0.0017876998 0.0073189354 0.0009452561 0.0011641122 0.0018800078 -0.0014343802 -0.003905964 0.00018158555 -0.0015735785 0.005156979 0.0069844713 -0.00052715186 0.0023257928 -0.004771605 0.0013275975 -0.005411119 -0.006792208 -0.0046095336 -0.0069972463
16 0.005685621 -0.0045093996 0.0064658998 -0.0056590196 0.0026731836 0.0075585926 -0.006082381 -0.0077695763 -0.0033821454 -0.0020961957 -0.0002119448 -0.0068996493 -0.0067324666 0.0021876646 -0.0064112553 -0.0070854193 -0.0018284889 -0.0067435997 -0.0055130078 -0.006563399 -0.0002354132 -0.0035658581 0.00517748 0.0011930941 -0.002610528 0.0047726342 -0.004697879 -0.0036376324 -0.0056308666 -0.0033879532 -0.001413539 0.0050700335 -0.0021643694 0.0038429433 0.0053940956 -0.00583102 0.0035662893 0.004786702 -0.0023081833 0.005175798 0.004785843 -0.0050339727 -0.005284806 0.0019835616 -0.0012686085 -0.004738381 0.007421257 -0.004007927 -0.005120388 -9.366032e-05 -0.0021104906 0.00034718774 -0.0027636392 -0.00032760203 -0.0005536061 0.00064282864 0.006402201 -0.0044818027 -0.0012965063 0.0043528182 0.006381344 -0.0034711193 0.00701987 0.0064481758 -0.0034650173 0.00023680087 0.0033394461 -0.0030674376 -0.004343723 -0.005087752 -0.00052401423 -0.00023118872 0.003486785 -0.0019328548 -0.00013485085 0.0019233404 0.0038028117 -2.40691e-05 -0.0049526636 -0.0072350055 2.0826235e-05 0.005204605 0.0011453303 -0.0070050955 -0.0062020347 0.0051186737 -0.002957563 0.004886713 -0.0052195564 0.006624736 -0.0050908783 0.0025687655 -0.0008257702 -0.005302756 -0.002568435 -0.0009073531 -0.004274172 -0.0009463653 -0.0059088385 0.0020677028 0.0070860535 -0.0018572267 -0.0007628985 0.00274497 0.0067695994 -0.0046264473 -0.00538092 -0.0022913944 0.007146638 0.0006767716 -0.0067800004 -0.0011304524 0.0074058324 -0.005898037 -0.0041860146 0.0072785644 -0.0070107235 0.0029889904 0.00051987544 0.0052036727 0.0064943386 -0.002227176 -0.0031189946 0.006951498 0.0016325358 0.0048819855 -0.007379465 0.0074922843
7 -0.0010533659 -0.004728215 0.0023379177 -0.00035672728 0.0036769472 -0.0017836103 -0.0032326896 0.0017796084 0.0065268623 -0.0039028171 0.0020849053 -0.0062426208 -0.005291677 -0.00036536623 -0.006849787 0.0021792483 0.0012489026 -0.0018122597 0.0039092116 0.0076162396 0.006604897 -0.0014689257 0.0016079312 -0.0031278823 -0.006438598 0.004904653 -0.0015227981 -0.0005204724 -0.0013838531 -0.0035434887 0.0031732107 -0.0033360785 -0.0074832393 0.006986809 0.00325396 0.0072146365 0.0051902365 0.0022849506 0.0076593906 -0.003456751 -0.005315087 0.0033026412 0.0029132813 -0.0044254772 0.007581844 -0.002779927 0.007460474 0.00065212976 -0.0049519194 -0.0015446227 -0.005763324 -0.0023277523 0.000813826 0.00740835 0.007309256 -0.005153029 0.0027149618 0.0017777896 -0.0019448064 -0.007210291 0.00080244243 -0.006379458 0.004937648 -0.0045313127 0.004324562 0.0076825963 -0.00012500025 0.003537885 -0.001413594 0.0057505947 0.0030782009 -0.007039316 -0.0018738313 0.0028349757 -7.778779e-05 -0.0009384928 -0.00082456134 -0.0013059387 0.0004726192 0.0032539805 -0.0033224933 -0.002995017 -4.1263178e-05 0.0002104342 -0.00013187993 -0.0037386771 0.0033698454 -0.001696812 0.0016433904 0.0005207211 0.00466381 -0.00534561 -0.0053247735 -0.0034970762 0.0073717413 -0.0012436584 -0.007366596 -0.00042581372 -0.003475721 0.0046875617 -0.007487254 0.0022335947 -0.007228775 0.00097640697 0.0046868734 0.005779178 -0.0059542684 -0.0047289245 -0.005342532 -0.006186203 -0.0074211564 -0.0016605444 -0.00065307226 -0.0056689074 0.0053023724 0.0008747028 0.0045538023 0.001150677 0.000616692 -0.005756351 -0.001700514 0.0033758432 -0.003972902 0.0008834293 0.002252628 -0.001200282 0.0077596055 0.006523152
17 0.0018872395 0.005561129 0.0046026856 -0.004359857 -0.0040283147 -0.0052096387 -0.0060756523 0.0064927563 -0.0015487047 -0.00535544 -0.0032456163 0.0040188488 -0.0022415128 -0.002929422 0.0012667384 -0.0021689795 -0.0012377817 0.0008394467 -0.0023265192 0.0066556893 0.003055418 -0.007780362 0.0048903124 -0.005276761 0.00060111936 0.0034408085 -0.0039870115 -0.0016489606 0.006324593 -0.0033154627 -0.005965829 0.0072327442 -0.0016839821 -0.0036870567 0.0066959374 0.0033463584 0.0033787787 0.007253526 -0.0066039693 0.004105719 0.0015932433 0.0032720938 0.0013264846 0.0034876047 0.0035049142 0.0047691576 -0.0025016386 -0.0035747876 -0.00033321604 0.0019794796 -0.0025493493 0.004732592 0.0032454142 0.0060660876 0.0020072442 0.0063411584 -0.0010837577 0.006310881 0.0029039187 -0.006286972 -0.0030731363 -0.0019311551 0.0038226908 -0.0006813742 -0.002211647 0.006120084 0.007283516 -0.0012616627 -0.0040306635 -0.003673249 -0.0037859771 -0.0075022075 0.0010718908 -0.0033007152 0.0019739913 0.004386315 -0.003176489 -0.0074973293 0.0012083575 -0.0052344706 0.001949355 -0.0029536188 0.0055300165 0.0005001724 0.0027819835 -0.0021399483 -0.001336365 0.0059787445 0.0010997485 -0.004570663 -0.0061207004 0.0009630369 0.0050426805 0.0043408982 -0.00701332 0.0067126285 0.0031617014 0.005835629 0.007614324 -0.0056949845 -0.0070624705 0.0045593753 0.0073368847 0.0027397852 0.0055381227 -0.0012249453 0.0062089832 -0.007413015 -0.006273046 -0.00518779 -0.0031276988 0.0038978253 -0.0029793428 -0.0064999256 0.006571701 -0.0029273452 0.006725544 -0.0038248058 0.0030614017 0.0038453257 0.0018692259 -0.0022021905 0.0022258786 -0.0064501846 -0.002160578 -0.0020243423 0.005663286 -0.0027057836
14 -0.005156018 0.0033909585 -0.00037069153 -0.002810591 0.0053769313 0.003025244 -0.0030470323 0.0006030379 0.0071433615 0.006058325 0.0049702125 0.00364633 0.0018628826 -0.0014387704 -0.0049775727 -0.00023578946 -0.0012229597 -0.00044709817 -0.004892868 0.0058078496 -0.005149604 -0.0056556854 -0.0021540206 -0.0011839066 -0.005965404 0.0005455008 -0.0041610245 -0.0009965189 -0.005753993 0.0015316941 0.0025571864 -1.8076971e-05 -0.0042565297 -0.0013485048 0.0055350913 0.0029189521 -0.0069383197 -0.0026668366 0.0018391423 0.001670328 -0.007393756 0.0035712235 -0.0067632794 -0.005771147 0.0027211811 -0.0027116863 0.002784743 0.0069485083 -0.0027924394 0.007281582 0.0013367487 0.007693574 0.004457065 -0.007148034 -0.0025997898 0.0051016994 0.0043771714 0.0068011843 0.0054110177 0.006280381 -0.0076742256 0.0033584572 -0.0039297473 0.0027440516 0.0047317874 0.0034313528 0.005869031 0.0011700904 -0.0009882357 0.004506563 -0.004405912 3.0149706e-05 0.0073879585 -0.004282227 0.0029799053 -0.0063382974 0.0076330416 0.0063789953 0.0010007592 0.0039824834 0.0011001006 -0.005043095 -0.0011156648 0.0050384104 -0.0036072703 -0.0031195823 0.003847191 0.0021196082 -0.0014437307 -0.002247612 0.004695884 -0.004466202 -0.002528674 -0.005068613 -0.0033083064 -0.006703902 -0.0034920229 -0.0066493982 0.0010967012 -0.006732966 -0.0077473875 -0.00640752 -0.0052911453 0.005219207 0.0029566847 0.00027825497 -0.0023109233 -0.0058033755 0.00041673332 0.0003905408 0.00015282724 0.0006660903 0.00061432086 -5.325023e-05 -0.006255511 -0.004586151 -0.0065491498 -0.0010250332 0.0014223726 0.0057946313 -0.0015339274 -0.0018166341 0.0074118394 6.226916e-05 -0.0018785326 0.006722537 0.0020992216 -0.0041749785
10 0.005146958 0.0035235574 -0.0055113025 -0.0002524797 0.00065194257 0.004490123 -0.0013419176 -0.0021926016 0.0013659615 0.00066185277 0.00093189627 -0.002058033 -0.004676394 0.005721081 0.005927637 0.006481529 -0.0067178495 0.0020597074 -0.0027812207 0.007515941 0.0022685686 0.0036258698 0.0018637618 0.0051628733 -0.0044869455 0.0061675096 -0.0018835329 -0.0035639731 -0.0016101487 0.007604342 -0.0053567113 -0.0017122813 0.005469531 -4.355423e-05 -0.004917943 -0.004994942 0.0069846837 0.005023106 0.0037293695 -0.0025484748 -0.007240328 0.0029585063 0.00559418 -0.0044006947 -0.0061445413 -0.002322453 -0.0038530454 -0.0018086806 -0.0015189191 -0.004115251 0.0073805572 -0.0072646346 0.003518709 0.004222014 -0.0011009863 0.007036791 0.0077229375 -0.0042773774 -0.0047039064 -0.0052710725 -0.0061678765 -0.002381185 -0.0043703336 -0.0065192813 0.0006116424 0.0023395754 0.0050115185 -0.002053867 -0.0034792786 0.0009762272 0.00030582957 0.006341405 0.00014281273 0.0056496765 -0.0064566527 0.0065887 -0.0014757104 0.0067977766 -0.005950654 0.0014034268 0.00082538 3.59416e-05 -0.0039869165 -0.0072247637 -0.0056751696 -0.0062118545 0.0014950996 0.00037380215 -0.0014165137 0.0055626296 -0.0019341344 -0.0010525854 -0.0069535654 -0.007754229 0.006991717 -0.004495264 -0.0049789045 0.004062037 0.0052109323 -0.0053372197 0.00074981246 -0.00469412 0.0012869872 -0.0033509992 -0.002688123 0.001707552 0.0067668576 0.005256336 -0.007560201 -0.004392269 0.0061565097 0.0015541855 -0.0033250405 0.00046782196 0.007438251 -0.0008614976 -0.007362998 0.0012565702 0.004869027 0.0049081016 0.0031966018 -0.004414249 -0.00028960407 -4.3217093e-05 0.0035717152 -0.0062824916 -0.006264304 0.0002068365
2 -0.006725234 0.004546997 -0.00032641552 0.0077899825 -0.004174982 -0.00037979614 0.006059979 -0.0031780722 -0.003918672 0.0012422428 0.0020708544 -0.0020038746 0.0050371317 -0.005984338 0.0026512193 0.0003827894 0.006822018 0.004673995 0.0053245015 0.006111363 -0.0074219685 0.0074704867 -0.0060709026 -0.0020668032 -0.0038331319 -0.0038802316 -0.0062684305 -0.0060809255 -0.0035571968 -0.0009963764 -0.0039867098 0.0047972985 -0.007434859 -0.0041461755 0.007372775 0.005461976 0.005996731 0.0033083903 0.000396166 -0.0046727685 0.0047021694 0.0020586178 0.0060151825 0.0049951896 0.006205133 0.006763599 -0.0077310586 -0.0052778944 0.0010449803 0.005031487 0.0057607936 0.0043101413 0.0059856446 -0.00400435 0.00514407 -0.0032096663 -0.0070744865 0.0071419375 0.0010401597 -0.0021559997 -0.0019358145 -0.0032972489 0.0037596384 0.0034376737 -0.0020729396 -0.0057358444 -0.0027858214 -0.00026298035 0.004762416 -0.0022166707 -9.444915e-05 0.00068728626 -0.005543476 0.0016132826 -0.0011190809 0.002189179 0.0037829857 -0.0010562651 -0.0021719867 0.0060458183 0.003941874 0.0052449387 0.0035278462 0.0067712152 0.00583982 -0.0008452246 0.0068340925 0.0035950923 0.0042504948 -0.0010828786 -0.00159478 -0.00345652 -0.0066524977 0.002373225 0.006939994 0.0069685485 -0.0015174644 0.0047548106 0.002952909 -0.003356223 0.0015960345 -0.004248348 0.006413197 0.00424446 0.0024878392 0.0032051317 0.0067633986 0.0056812773 -0.00065115094 -0.0055256 0.0065472443 0.0056512374 0.0013519311 -0.0010527279 -0.004601634 -0.003541477 0.0067562237 -0.002449303 -0.0049522026 0.007710998 0.006013005 0.0071255015 0.00088711083 -0.0065039685 0.006582044 -0.0028876802 0.004486073 0.0034309216
8 0.0075702695 -0.007260545 0.0071940664 -0.0072511937 -0.00539665 -0.0071110893 -0.0043336796 0.00575695 0.007159748 -0.0025979308 0.002908633 -0.0028321901 0.006157399 0.0045834966 1.6298145e-07 -0.0028349021 -0.005643989 0.0037254812 0.0011351397 -0.0020415513 0.0061232867 -0.0031637615 -0.0071476456 -0.0017620865 9.7771175e-05 -0.005186918 -0.0042864187 -0.006640451 0.0072108386 0.005800022 -0.0002306588 0.005755987 0.0062115537 -0.0006121667 0.005165696 0.002943378 0.003966283 0.0056663994 -0.003702648 -0.0017074477 0.00068212766 0.0033095358 0.0025815088 0.0039811153 0.003583192 -0.006592585 -0.0024873745 -0.0056537185 0.0075636115 0.003911406 0.0001334697 0.003213264 -0.005981352 -0.004917696 0.0024034325 0.0051051863 0.0030858396 0.00470158 -0.0015516654 -0.0026133824 0.00016185176 -0.0024955943 -0.0043100817 -0.006084813 0.005105893 -0.0008518258 -0.0014772499 -0.0060974807 0.007294979 0.00067823566 0.0013825288 0.0019466141 -0.005770307 0.0012803301 0.0023254398 -0.0066929916 0.0038717203 0.0019011004 0.0058577443 0.003940858 -0.0023685284 -0.0055960445 0.0055439165 0.0014855741 0.004061903 0.004985241 0.0014939681 -0.0047871964 -4.919246e-06 0.0064596077 -0.0047644908 0.007373657 -0.005617924 0.0033069458 0.0016901521 0.0058130585 -0.0038197385 -0.0035658954 -0.0047641983 0.0025776308 -0.0035152053 0.006658504 -0.0033506462 -0.0071136095 -0.003762778 0.005012883 -0.004977597 -0.0041105757 -0.005706571 0.0047048917 0.0026231203 0.002225305 -0.0024519926 0.0047116335 -0.0048068324 -0.0015469538 -0.004674283 -0.0007778751 -0.0015788954 0.006629645 6.09383e-05 -0.0066994736 -0.0042414833 -0.005371864 0.0021034228 0.007388006 -0.004543747 0.0064570513
6 0.0066656657 -0.0055176867 -0.00694001 0.0073977998 0.006542472 -0.003664759 -0.0052547194 0.0061266692 0.0029401137 0.0063246125 -0.00591527 -0.0074414723 0.0012323484 -0.007660756 -0.0038170973 -0.0027032057 0.007516346 0.0067371633 -0.0022153184 0.004552244 0.0064352304 -0.0017679539 0.007444173 0.0055939183 0.0015949225 -0.0030068466 -0.0039701173 -0.0023841038 0.006162394 -0.004836277 -0.0022773612 0.007180486 0.0027005123 0.004744228 -0.006275638 -0.0005871132 0.0043144124 -0.0036831787 0.005842573 0.007280931 -0.00031981897 -0.0016121883 -0.00046356115 -0.0045202263 -0.0065517826 -0.0011772448 -0.0019977996 0.0034237765 -0.005365248 0.0042294497 -0.005269598 -0.006109601 0.006618525 0.0069676675 -0.002719719 0.0027276678 -0.004527918 -0.0068360046 -0.0043090405 0.0052724443 0.0050138747 0.007373495 0.0055119414 0.005277307 0.0010157553 -0.0076596113 0.0035841893 -0.00042048655 0.00494695 0.0013933396 -0.0024451548 0.0060624788 0.0012145825 4.3132342e-05 -0.00360387 -0.0066043157 -0.0060678376 0.006773836 -0.006972625 0.007058372 -0.007250795 -0.00021621585 -0.0014898805 -0.0069774576 0.0067422343 0.0052951667 0.0023589367 0.003776135 8.764863e-05 0.0073630316 0.005485381 -0.007698224 -0.0034634536 -0.0010078996 0.0023810333 -0.0033780877 0.0011321614 -0.0061296085 0.00217037 0.0036739781 0.0038572755 -0.0024810173 -0.0065836255 -0.007203608 -0.0005647652 -0.005724582 -0.0053241896 0.0047812546 0.005603362 0.0016542338 -0.006171407 -0.0044523347 0.006290504 0.003063159 -0.0040941173 -0.0057749255 0.0006027771 0.0027060583 0.00162437 0.0024225032 -0.0043910155 -0.007726161 -0.005485029 0.00017992873 0.0036083432 0.0035361778 0.0014686035 0.0040395893
3 -8.231308e-05 0.0032141926 -0.007127532 0.0060163373 0.004802714 0.0040032472 0.00563021 0.0065935915 0.00057710614 -0.0013311412 0.0004051784 -0.007278735 0.0065673552 -0.004984322 0.006584252 -0.0033159023 0.0005053459 -0.007159507 -0.0074676313 -0.006122508 -0.0060398877 0.00029342342 -0.0056456737 -0.0038673542 -0.0041185208 -0.003351014 0.005478368 0.003772961 0.0067834146 0.0055418685 -0.0044487547 0.005656872 -0.007261643 -0.002021538 -0.0060602864 0.0032754699 0.0014064303 0.005504759 0.0023005456 -0.0054537887 0.0060255295 -0.004678849 0.00702946 0.0023118788 -0.0031369478 -0.0036632763 -0.003450564 -0.0048019197 0.0073271412 -0.0020699967 0.0060722185 -0.007562762 0.0016474929 -0.0009637615 0.005893929 -0.007073907 0.005810596 -0.003988903 -0.0046982616 -0.0044134036 -0.0026399763 -0.002664919 -0.0024966132 -0.0058532823 0.0005537318 -0.00045005605 -0.0013156245 0.0029352596 -0.005953273 -0.0025167363 0.0040276106 0.006674893 -0.0076640155 0.005621357 0.004148037 -0.0030310135 0.0067001227 -0.0072046816 0.0056630317 0.0041904952 0.001010621 -0.004062308 -0.0032645725 -0.0026224842 0.0012564743 0.0012396127 0.0057720654 0.007794995 0.0069276076 -0.0031300383 0.0075354613 -0.00049182866 0.0038011195 0.0019914191 -0.00049203914 0.0028651934 -0.0041557923 -0.004497404 -0.0059411284 0.0014894018 0.0050983354 0.0006891629 0.0009819912 0.0024778098 0.0063552074 -0.0060156723 0.0017662123 -0.0058391485 0.0028982908 0.0074301166 0.005875202 0.0050203362 0.0062615434 0.0051180823 0.0053567784 0.006782881 -0.0038656564 0.0071976203 0.0039525013 -0.0016642576 0.0066308193 0.003969799 0.007538246 0.0022128131 0.007709014 0.0009351596 0.0071321744 0.002802318
1 0.0051287543 -0.0028213523 0.00530696 0.005659042 -0.0016667666 -0.0014527766 0.0028216764 -0.005497209 0.007605898 -0.0076409243 -0.005077726 0.0021748329 0.00502499 -0.0041932557 0.0021503847 0.007126024 -0.005324548 -0.004765556 -0.0038981577 -0.002872197 0.0014450904 0.007564557 0.0050295126 0.0003102282 0.001930288 0.0065941336 0.007132015 0.004397463 0.004645518 -0.005953661 -0.0029903688 -0.0044377595 0.004829511 -0.0017628511 -0.0068589337 0.005952441 0.0065622525 -0.0025939336 0.00712239 -0.0005768435 -0.0028332183 -0.00030053966 0.00015189592 -0.0027382001 0.002197845 0.004476332 0.005366414 -0.006955833 -0.0017130692 -0.0042826543 0.0058758594 0.0050794557 -0.0034068143 0.0018178383 -0.004651298 0.00018476229 0.0073919995 -0.002038939 -0.0040529044 -0.00577907 -0.0022749547 -0.0006752452 0.002756142 0.007610851 -0.0026478712 0.0014857566 0.0075632883 0.0011965521 0.00077070016 0.0076581025 0.007262078 0.006021927 -0.004820724 0.0077999886 0.004569521 0.0070880204 -0.001558749 0.0026171375 0.0053387163 -0.0030419976 0.005189727 0.0020022364 0.0072763516 -0.002371722 -0.0024291947 0.0048557734 -0.007092379 -0.0056671808 -0.0050781453 -0.00058521423 -0.0018461104 0.0053246245 0.0072160875 -0.00071074907 0.001103769 0.0015784036 -0.0015779678 -0.006276829 0.00581332 -0.0033577355 0.003575405 0.007101331 0.0023775175 0.0024521798 0.0031733038 -0.0021103257 0.002988101 0.00026376825 0.0043958686 0.004294821 0.0014289999 0.004491724 -0.007006311 0.005124498 0.007207806 -0.0032868339 0.0012558987 -0.00408897 0.0008267332 0.0021641944 0.0063755754 0.00042501 0.0019977018 0.0010138554 0.006564471 -0.0044591427 -0.004892055 -0.0028339988
4 -0.0017973045 0.0039383303 -0.0063440287 -0.0022136997 -0.0064042397 0.004023211 -0.0020062998 -0.0070836777 0.0031810384 0.007044784 -0.002373172 -0.004561359 0.0023592878 -0.00034050643 -0.0077964347 0.0065763313 -0.005733506 -0.0038518803 -0.0020758444 -0.004259621 0.0013410235 0.007588136 0.0035720877 0.006319221 -0.00036754552 0.00050384644 -0.00208465 -0.0068590324 0.0026807059 0.0016354481 -0.0073608235 -0.0038815914 -0.007604765 -0.004468587 0.0031754235 0.006752235 0.0032122266 0.0018659877 0.006363108 -0.00087438244 -0.0010919636 -0.0068334555 -9.827502e-05 -0.002005916 0.0003016228 0.005687236 -0.005501141 -0.0030831834 -0.0052067228 -0.0027688397 -0.0025904933 0.0016696258 0.0026001316 -0.0038728025 -0.0035517896 0.0008896049 0.0042605335 0.0041981637 -0.0023191692 -0.003333223 -0.0043880055 -0.00042576808 0.0015206039 0.0011916766 0.005744164 -0.0021354472 -5.150307e-05 -0.0043184636 -0.0009141136 -0.0060249716 -0.00074947625 0.0010231836 -0.006714644 0.006834831 -0.0071936455 -0.0075192787 -0.0066497065 0.005713491 0.0042699752 0.007226142 0.002007951 0.0006613508 -0.0019839378 0.0073106783 0.0021543037 0.0031997254 -0.00092416815 0.0007066438 0.0051752403 -0.0005675787 0.002610553 -0.00052501634 0.0041003106 0.0028436985 0.0020176014 -0.004148354 -0.0036782036 0.0033656424 -0.004614977 -0.00014078617 -0.0004949346 0.0027290964 -0.0065955203 0.006888464 -0.0011318317 -0.004164787 0.0031675538 -0.0015121019 -0.0060667833 -0.0035131238 -0.00030291174 -0.0069894316 0.0004457524 0.0019076513 -0.0025197444 0.0020081252 0.0019381233 0.007803294 0.0011175824 0.0015785452 0.0021715323 -0.0016233372 -0.006795794 0.0062681045 -0.0015427321 -0.00757212 -0.0051187538 -0.0030827038
5 0.003089334 0.0039363913 0.004754696 -0.005289266 0.0005381545 -0.0021681888 -0.004069685 0.0054541193 0.003087474 -0.0024269586 -0.0064663338 -0.004016239 -0.0005074488 0.006102941 0.0047220197 -0.0066028563 -0.007471512 0.005573309 -0.001818411 -0.0028846161 0.0044920566 -0.004565864 0.003979652 -0.00018939469 -0.0053712213 -0.00025909208 0.0049679624 0.0072608897 0.0017350884 0.003945385 -0.0038863467 -0.0006230874 -0.0041544028 0.0009288769 -0.0014009485 -0.002837996 -0.005479984 0.0075425245 0.0023248652 -0.0017822068 -0.0032688202 0.0060263965 -0.005063949 0.0024387054 0.0006151227 0.00650225 0.0053407634 -0.0022723805 0.0019805469 -0.0013016192 -0.0073864544 -0.0020417664 0.0010410342 0.005110044 0.007800471 0.0070800427 -0.0062620007 0.005071395 -0.0044646384 -0.0007590428 0.0003772052 0.0051421355 0.0034922995 0.0035966616 0.0074086906 0.0002989564 -0.004717745 -0.004945391 0.0050248355 -0.0040957667 -0.002226416 0.0031838156 -0.0017892467 -0.0047071977 -0.0018153554 0.00094290543 0.0017057499 0.004752948 -0.0040734382 0.0024046572 0.005656778 0.0017149327 0.0042167893 -0.0037854165 0.004806728 -0.005938501 0.0027288012 -0.0072826594 -0.0020346176 -0.0070884367 -0.0012408346 -0.0041912124 -0.0030811867 0.00090129115 0.0021877717 -0.0011924962 -0.006383215 -0.004623455 0.0006400747 -0.003083014 -0.0073675374 -0.0006054491 0.005182241 0.004670972 -0.0077478588 0.002436393 -0.004677579 -0.007173352 0.0001329789 -0.00028876588 -0.0054468745 -0.004906295 -0.0018953793 0.005544263 -0.005895218 0.006014128 -0.00037144125 0.0008541355 0.0074083293 0.003693875 -0.002791224 0.002918453 0.0027494421 0.004950545 5.417131e-05 -0.003456005 0.0010298993 -0.0042298706
